tree
version=v4
num_class=1
num_tree_per_iteration=1
label_index=0
max_feature_idx=19
objective=binary sigmoid:1
feature_names=Feature_0 Feature_1 Feature_2 Feature_3 Feature_4 Feature_5 Feature_6 Feature_7 Feature_8 Feature_9 Feature_10 Feature_11 Feature_12 Feature_13 Feature_14 Feature_15 Feature_16 Feature_17 Feature_18 Feature_19
feature_infos=[0:1] [0:1] [0:1] [0:1] [0:1] [0:1] [0:1] [0:1] [0:1.0000000000000002] [0:1] [0:1.0000000000000002] [0:1] [0:1] [0:1] [0:1] [0:1.0000000000000002] [0:1] [0:1] [0:1] [0:1]
tree_sizes=2911 3324 3323 3328 3319 3319 3334 3344 3343 3341 3334 3352 3337 3341 3340 3348 3333 3355 3333 3344 3348 3342 3349 3344 3339 3344 3344 3366 3350 3361 3354 3358 3351 3351 3352 3347 3164 3356 3262 3152 3366 3365 3369 3384 3363 3364 3367 3378 3376 3387 3372 3390 3394 3392 3411 3409 3412 3399 3415 3401 3407 3423 3415 3411 3423 3419 3223 3421 3423 3421 3429 3435 3427 3430 3444 3437 3223 3437 3441 3453 3452 3431 3239 3458 3443 3454 3451 3453 3458 3474 3456 3453 3467 3462 3461 3464 3481 3480 3481 3490 2948 3473 3484 3488 3498 3491 3493 3491 3498 3496 3508 3513 3505 3518 3504 3189 3514 3515 3519 3520 3524 3511 3532 3315 3527 3518 3534 3542 3526 3538 3535 3541 3547 3537 3549 3536 3439 3545 3550 3546 3551 3558 3552 3569 3562 3574 3570 3571 3571 3360

Tree=0
num_leaves=27
num_cat=0
split_feature=5 12 16 18 0 15 10 0 2 2 3 15 5 7 19 12 10 5 7 12 19 6 3 7 0 0
split_gain=174.983 109.218 68.5498 80.2831 60.1458 35.9593 37.4805 26.2866 18.5172 17.7359 22.2687 39.0875 22.899 16.2551 25.2095 11.203 11.1392 6.50706 5.17483 3.08654 2.48685 1.96705 0.0601057 0.0424821 1.42109e-14 7.10543e-15
threshold=0.53651733803865465 0.31002262685515497 0.49786454913334593 0.47024276866048181 0.43050091256548523 0.43315721915359728 0.42567715660979705 0.5330316121162848 0.57581719981941204 0.52745164431885172 0.40912412647819124 0.62239053121886545 0.39888081031748057 0.45839123354460565 0.51467467805475609 0.25496500622975055 0.49901715730011909 0.48639640710472187 0.73269227587639985 0.42058370515813842 0.37969428540338834 0.46122948075793319 0.48921782531699515 0.61325978638039491 0.51938198421184323 0.67298606673132044
decision_type=2 2 2 2 2 2 2 2 2 2 2 2 2 2 2 2 2 2 2 2 2 2 2 2 2 2
left_child=1 4 3 16 -1 6 7 -3 18 10 21 12 -12 -5 -15 25 -2 -14 24 -13 -11 -7 -22 -23 -4 -6
right_child=2 5 8 13 15 9 -8 -9 -10 20 11 19 17 14 -16 -17 -18 -19 -20 -21 22 23 -24 -25 -26 -27
leaf_value=0.17707052080774119 -0.17753034759000264 -0.17753034759000252 -0.17753034759000244 0.21681699254953654 -0.17753034759000252 0.18252591888065645 0.17546599196332877 0.099436010090507815 0.051076804232091641 0.18397192800891282 0.12251654024119743 0.14447119092145211 -0.13307895736453076 0.1621453751516668 -0.081515344457070454 -0.034650878309594471 0.0024977840354984647 0.0071138900169499322 -0.068422389413441254 0.2100302175432989 0.21563454173142368 0.21563454173142368 0.2225321715057067 0.2225321715057067 -0.17753034759000264 -0.17753034759000258
leaf_weight=10.998281344771383 10.998281538486479 7.2488673776388186 12.248086258769044 17.497265741229057 6.4989845454692858 22.496484562754631 16.997343897819519 6.4989844560623169 5.2491797655820838 20.746757984161377 12.997968897223474 10.248398542404173 6.748945474624632 13.247929811477663 6.2490235716104499 10.498359575867651 4.999218836426734 6.4989844858646393 5.4991407394409171 23.996250167489052 14.497734472155569 14.497734472155569 98.234649062156677 23.246367335319519 8.4986720979213697 4.9992188811302185
leaf_count=18 44 29 49 24 26 36 28 14 13 33 26 19 25 23 21 32 14 18 18 34 20 20 131 31 34 20
internal_value=0.0250013 0.158371 -0.00353866 0.0659039 -0.0138684 0.178315 0.0761678 -0.0466008 -0.120379 0.190669 0.162896 0.120037 0.0282161 0.146845 0.084049 -0.109338 -0.121272 -0.0643051 -0.15467 0.19041 0.21579 0.205932 0.221645 0.219883 -0.17753 -0.17753
internal_weight=0 317.95 84.4868 52.9917 32.9948 284.955 30.7452 13.7479 31.4951 254.21 120.731 60.4905 26.2459 36.9942 19.497 21.9966 15.9975 13.2479 26.2459 34.2446 133.479 60.2406 112.732 37.7441 20.7468 11.4982
internal_count=800 560 240 126 96 464 71 43 114 393 209 122 69 68 44 78 58 43 101 53 184 87 151 51 83 46
is_linear=0
shrinkage=1


Tree=1
num_leaves=31
num_cat=0
split_feature=5 12 0 12 2 15 2 10 15 19 5 2 3 4 15 2 14 18 17 3 12 2 12 0 10 19 6 2 7 3
split_gain=143.316 89.6824 67.0406 57.5654 56.966 31.1865 29.9109 54.4851 18.6728 17.1379 16.4171 10.4842 30.5198 29.6947 7.59562 5.28926 2.76701 1.90278 1.33659 0.839126 0.594275 0.233635 0.0853099 0.025611 0.0186473 0.0069603 0.00490422 0.00311463 0.00117274 1.46096e-05
threshold=0.53651733803865465 0.35120782935195788 0.4395558710812873 0.64278601929809687 0.64383854303517662 0.43315721915359728 0.58874023099246553 0.55203414841861176 0.67315050736471005 0.3334553976383452 0.3435499360526813 0.49473599993578227 0.48348483214406784 0.45263119176126859 0.49207874318967781 0.62902630349799771 0.48147156012278741 0.45226935718603323 0.70113384510772991 0.35579787481791975 0.39492175367201671 0.52232098924429582 0.25496500622975055 0.37713374658877868 0.4941168370057783 0.39236302356075098 0.47815023092620529 0.49292387885490041 0.59111023122776685 0.5670407912726726
decision_type=2 2 2 2 2 2 2 2 2 2 2 2 2 2 2 2 2 2 2 2 2 2 2 2 2 2 2 2 2 2
left_child=1 2 -1 4 8 6 7 -3 9 -2 -4 12 17 -14 -5 22 -13 19 23 26 -18 -22 -12 -11 27 -23 -7 -25 29 -27
right_child=3 5 10 14 -6 11 -8 -9 -10 18 15 16 13 -15 -16 -17 20 -19 -20 -21 21 25 -24 24 -26 28 -28 -29 -30 -31
leaf_value=0.12863087004717547 -0.037544296504944369 -0.19468635534453402 0.00393371180855423 0.010416548402010138 0.16227045674687901 0.18266493904616685 0.17084297349901709 0.15871367292659988 0.0096038167992934138 -0.19426793758473801 -0.18373356746766348 0.12814542831649287 0.1022587046742221 -0.15362543892371236 0.14637192779180344 -0.073001983184289118 0.1552890303099555 0.13417494113547987 -0.13258368329156686 0.15352977255600808 0.16839757437252431 0.18256848295361003 -0.20008588522416304 -0.18373356746766356 -0.19150462547129229 0.18015980039455581 0.18022631154065893 -0.18685602638048021 0.1810442236032872 0.18004892178090989
leaf_weight=21.5626031011343 11.447143480181692 9.6845897883176857 8.9519780129194277 5.4588820338249233 8.6758637577295286 14.863769292831419 11.6832859814167 7.9387378692626944 9.9272672384977323 6.9629669636488023 5.2088501304388073 12.873691603541372 15.138709276914598 6.474856585264205 16.622005254030228 4.9687861800193778 11.860372245311735 17.840156599879265 4.9681149125099173 16.120808616280556 18.590794131159782 14.862196683883665 8.2329980283975583 7.6892549544572848 6.7235162109136573 14.81805109977722 18.524236857891083 5.4651177227497101 14.832432985305784 60.004072844982147
leaf_count=37 34 39 24 14 13 20 17 12 26 28 21 22 29 24 27 16 18 30 18 25 27 20 33 31 27 20 25 22 20 81
internal_value=0 0.121199 -0.00323448 -0.0258477 -0.0753246 0.144077 0.0467654 -0.0354911 -0.114084 -0.14247 -0.107149 0.15612 0.128995 0.0256025 0.112761 -0.161161 0.172442 0.162176 -0.18023 0.172266 0.176667 0.178727 -0.193749 -0.189049 -0.187221 0.180564 0.181312 -0.185031 0.180232 0.180071
internal_weight=0 315.036 48.9252 83.9401 61.8592 266.111 29.3066 17.6233 53.1834 43.2561 27.3626 236.804 88.9625 21.6136 22.0809 18.4106 147.842 67.349 31.809 49.5088 134.968 123.108 13.4418 26.8409 19.8779 104.517 33.388 13.1544 89.6546 74.8221
internal_count=800 560 131 240 199 429 68 51 186 160 94 361 153 53 41 70 208 100 126 70 186 168 54 108 80 141 45 53 121 101
is_linear=0
shrinkage=0.1


Tree=2
num_leaves=31
num_cat=0
split_feature=5 16 18 12 0 7 19 15 5 12 15 2 10 2 2 3 15 3 14 10 18 8 0 12 15 2 5 12 4 15
split_gain=120.124 68.5879 81.9268 65.0024 52.9586 21.9605 29.9923 23.0111 17.945 23.3717 16.3699 23.8391 44.5929 14.8144 5.33578 10.2856 10.7267 5.20062 4.82866 2.98164 1.34009 1.84016 1.32397 0.90516 0.165313 0.618613 0.0731985 0.0364927 0.0183174 0.0119853
threshold=0.50686998382326542 0.52928794112835831 0.41908672236380456 0.35120782935195788 0.42740152548582727 0.48678880052550766 0.47028173269074808 0.55355044575392776 0.39639197746749294 0.26670616396467905 0.4588322803243618 0.58874023099246553 0.55203414841861176 0.57581719981941204 0.4853085797147752 0.4561838992612412 0.66770619765495476 0.47783525091800505 0.42262366573379578 0.35307769765121938 0.35896589948867014 0.42167046968905714 0.40935658152022764 0.39825553104480599 0.61384305937716477 0.56560314542400658 0.55853430424078898 0.29277953366166964 0.40990998084597235 0.5873898092382327
decision_type=2 2 2 2 2 2 2 2 2 2 2 2 2 2 2 2 2 2 2 2 2 2 2 2 2 2 2 2 2 2
left_child=3 2 17 4 -1 22 -7 -8 9 -6 11 12 19 18 15 20 -17 -2 -3 -5 -12 -22 -4 -16 25 -25 -20 -10 -19 -28
right_child=1 13 5 10 8 6 7 -9 27 -11 14 -13 -14 -15 23 16 -18 28 26 -21 21 -23 -24 24 -26 -27 29 -29 -30 -31
leaf_value=0.13954528410884079 -0.066034882698168429 -0.077644409119499366 0.13055334319165351 -0.18305428075415864 -0.14108945586698532 0.13460527657071122 -0.18978250607450434 0.069147104577662752 -0.17503446038935766 0.11211948990807308 0.16825835673621156 0.16558762303502919 0.16067812780618762 0.030526612173421175 0.13680816337555668 0.0097476761979260682 0.16092340338363734 -0.18200850357908649 -0.19071075259248782 -0.077306812257576962 0.17074491786464197 0.11511551923378188 0.17195643609976299 0.14158694417588572 0.16816642271545817 0.16759178880737746 -0.17450671868365331 -0.18649514096966144 -0.17410940026781288 -0.18004053393674821
leaf_weight=17.573258236050606 6.4060203284025219 5.8934869766235414 12.434301257133482 5.8608903437852877 7.1575404554605502 14.974776402115824 7.4034948498010618 6.3985007107257843 6.3559371978044492 7.4286569505929947 25.311921715736389 16.991473913192749 9.7105459421873075 4.9502816498279563 12.550314888358114 12.354344025254251 7.5691805630922309 4.9069828838109952 4.9199882298707989 4.8918025940656662 9.457862854003908 16.015524581074715 20.386323809623718 12.62613397836685 69.40113490819931 33.204247832298279 9.524889677762987 4.9359673261642456 7.3075159192085266 6.6437357664108267
leaf_count=28 20 20 21 24 27 25 30 14 26 14 35 24 14 12 20 32 11 20 20 16 13 28 28 20 96 46 39 20 30 27
internal_value=0 -0.00454344 0.0447971 0.117974 0.00557559 0.100361 0.0365944 -0.0697447 -0.0854003 -0.0121318 0.138673 0.0780361 0.00533843 -0.128493 0.150114 0.128074 0.0671811 -0.13901 -0.157667 -0.134946 0.151962 0.13577 0.156271 0.162311 0.165088 0.160428 -0.18003 -0.180044 -0.177283 -0.176781
internal_weight=0 112.15 80.2179 279.397 43.4514 61.5974 28.7768 13.802 25.8781 14.5862 235.945 37.4547 20.4632 31.9324 198.491 70.7088 19.9235 18.6205 26.9821 10.7527 50.7853 25.4734 32.8206 127.782 115.232 45.8304 21.0886 11.2919 12.2145 16.1686
internal_count=800 306 188 494 115 118 69 44 87 41 379 78 54 118 301 119 43 70 106 40 76 41 49 182 162 66 86 46 50 66
is_linear=0
shrinkage=0.1


Tree=3
num_leaves=31
num_cat=0
split_feature=5 12 0 12 2 15 2 10 16 15 5 12 2 3 15 15 14 14 4 14 19 16 13 1 16 18 10 2 17 17
split_gain=101.306 61.567 49.2751 45.5531 43.5615 23.1764 21.9235 38.7408 16.3274 16.4154 14.3065 19.2302 8.96931 24.7439 21.6919 6.18175 4.46638 3.06717 1.83492 1.25864 0.921129 0.502932 1.16672 0.360631 0.0776586 0.0517116 0.0293535 0.0149662 0.0131776 0.0181305
threshold=0.5437382329870174 0.35120782935195788 0.42740152548582727 0.64278601929809687 0.64383854303517662 0.43315721915359728 0.58874023099246553 0.55203414841861176 0.42263963327633147 0.51608210511133601 0.39639197746749294 0.26670616396467905 0.49473599993578227 0.48348483214406784 0.61481106895917603 0.49207874318967781 0.35995194309235107 0.47547567435010879 0.22575559235084411 0.47547567435010879 0.55718254375416187 0.5185203703837955 0.48824331949001681 0.52321123231095357 0.51487101562979032 0.36316929171124285 0.3449788081375047 0.53515670867470633 0.44451115159729832 0.59584839253350563
decision_type=2 2 2 2 2 2 2 2 2 2 2 2 2 2 2 2 2 2 2 2 2 2 2 2 2 2 2 2 2 2
left_child=1 2 -1 4 8 6 7 26 9 -2 11 -4 13 18 -15 -5 -10 -14 -7 -20 -12 25 -23 -21 -18 -19 -3 -27 -26 -30
right_child=3 5 10 15 -6 12 -8 -9 16 -11 20 -13 17 14 -16 -17 24 21 19 23 -22 22 -24 -25 28 27 -28 -29 29 -31
leaf_value=0.12438481234111341 -0.10915905522581304 -0.16236434545619527 -0.12945894637259675 0.0072379978466445049 0.13960006521024212 0.077228544509779215 0.14628493388297284 0.13529463136048012 -0.071926834687745952 0.094177125653187532 -0.16820868676662895 0.10175504914269713 0.10174504119915656 -0.084541159508259286 0.11559512284403693 0.13157765565501708 -0.18007232386324071 0.15112840915352374 0.12357296399351465 0.1613292852772884 -0.11490361396789149 0.1175209855933101 0.15870610024505233 0.14159034090025854 -0.16207025195713973 0.16076897851087157 -0.1734609532197634 0.15720089903589091 -0.17142901755363041 -0.16448881306490737
leaf_weight=19.105802819132805 10.00422088801861 4.7031814306974464 7.0270224064588565 5.3577196598053005 8.282373294234274 4.5019753128290168 11.136563062667845 7.5429516285657874 5.8086993694305447 6.5826856046915045 10.0551860332489 7.3696252256631851 12.572244107723234 10.846961051225664 10.815473616123198 15.760375276207922 5.1144885569810894 13.501424714922903 20.912103161215782 24.648103356361389 4.7842009067535392 11.673224374651911 16.74554830789566 14.82162085175514 5.4216422885656383 14.068720102310179 4.8340412527322769 71.496570229530334 7.2356779724359495 7.84555883705616
leaf_count=32 38 20 27 14 13 9 17 12 20 13 42 14 23 36 19 26 21 20 35 35 18 20 24 23 23 20 20 103 30 33
internal_value=0 0.102959 -0.000505447 -0.0252124 -0.0721955 0.122587 0.0371229 -0.0340527 -0.108731 -0.028463 -0.0821215 -0.0111008 0.133229 0.10792 0.0153815 0.100032 -0.151097 0.148869 0.138816 0.143408 -0.151023 0.153516 0.141789 0.153917 -0.169048 0.15688 -0.167989 0.157788 -0.166299 -0.167819
internal_weight=0 303.163 48.3418 77.4134 56.2953 254.821 28.2167 17.0802 48.013 16.5869 29.236 14.3966 226.604 86.5462 21.6624 21.1181 31.4261 140.058 64.8838 60.3818 14.8394 127.485 28.4188 39.4697 25.6174 99.0667 9.53722 85.5653 20.5029 15.0812
internal_count=800 569 133 231 191 436 69 52 178 51 101 41 367 157 55 40 127 210 102 93 60 187 44 58 107 143 40 123 86 63
is_linear=0
shrinkage=0.1


Tree=4
num_leaves=31
num_cat=0
split_feature=5 16 18 12 0 7 19 15 5 12 0 15 10 3 9 2 7 10 15 2 0 12 12 2 15 3 16 5 14 12
split_gain=87.4485 48.695 60.8809 47.646 37.3114 17.0708 22.9539 17.3949 13.1501 15.9288 12.7603 12.1858 18.7949 23.5427 4.9539 4.45818 8.28994 7.09224 14.4319 1.2679 1.02002 0.866006 0.695405 0.189698 0.623489 0.179899 0.0986579 0.0604655 0.0201527 0.016333
threshold=0.50686998382326542 0.52928794112835831 0.41908672236380456 0.35120782935195788 0.42740152548582727 0.48678880052550766 0.47028173269074808 0.55355044575392776 0.39639197746749294 0.26670616396467905 0.37713374658877868 0.4588322803243618 0.40750445197969815 0.62863312576329677 0.35696705975743609 0.4853085797147752 0.3587943759015671 0.49484166255842543 0.60011923235371534 0.55272305243733799 0.62056112642929284 0.39825553104480599 0.47655532563924979 0.55605402006694449 0.62133335897453035 0.55327254160070705 0.40402045959019034 0.55853430424078898 0.49681697675102726 0.29277953366166964
decision_type=2 2 2 2 2 2 2 2 2 2 2 2 2 2 2 2 2 2 2 2 2 2 2 2 2 2 2 2 2 2
left_child=3 2 14 4 -1 19 -7 -8 9 -6 -3 12 13 -5 -2 16 -13 18 -18 -4 27 -17 -19 24 -23 -16 -24 -12 -29 -10
right_child=1 10 5 11 8 6 7 -9 29 -11 20 15 -14 -15 25 21 17 22 -20 -21 -22 23 26 -25 -26 -27 -28 28 -30 -31
leaf_value=0.12047449328402707 -0.063908409509639039 -0.0043823349194876682 0.11169276139113858 -0.16371102604114512 -0.11965858291350401 0.1182432438582743 -0.17082282020756137 0.057656266017813665 -0.15414950917726708 0.092792226238014613 -0.17158608382464158 -0.17747069447073566 0.12323306307060525 0.10717086075610416 -0.18429071562974758 0.11772657789336666 -0.0647243895713185 0.12311366439386461 0.11478571304671832 0.15391486073880287 -0.10893203937129921 0.12168004830164819 0.1449920567222806 0.14937558801703543 0.14987901120336611 -0.15746795881954131 0.15715431622843967 -0.16362158572361565 -0.15538520367122213 -0.16206059945646878
leaf_weight=16.602212518453598 7.7953906804323223 8.109413683414461 11.146595507860185 6.4423029869794828 6.8513437062501925 14.373278945684435 7.1107498556375486 6.2707147002220154 5.9115068614482862 7.278012827038765 4.7242356240749421 0.98028217256069083 22.188133984804153 6.3917163163423538 4.7545850574970228 11.69271147251129 5.7680523246526745 13.124881148338316 20.034936755895615 19.650355935096741 4.580091103911399 11.817383751273153 13.011271670460703 70.986581146717072 23.301169753074646 5.2742040008306503 13.684303283691404 4.6496942788362494 8.2269905954599363 4.6723959147930145
leaf_count=28 27 24 20 28 27 25 30 14 26 14 20 4 38 12 20 20 18 22 35 29 18 20 20 107 35 23 20 20 36 20
internal_value=0 -0.00443684 0.0381135 0.103044 0.00453092 0.0873738 0.0304961 -0.0637548 -0.0733593 -0.0102255 -0.111725 0.121593 0.0675184 -0.0288039 -0.123705 0.131864 0.111185 0.115497 0.0746577 0.138633 -0.15097 0.143555 0.14196 0.146402 0.14039 -0.170184 0.151226 -0.161909 -0.158359 -0.157642
internal_weight=0 106.666 76.3759 260.739 41.3155 58.5517 27.7547 13.3815 24.7133 14.1294 30.2904 219.424 35.0222 12.834 17.8242 184.402 66.6037 65.6234 25.803 30.797 22.181 117.798 39.8205 106.105 35.1186 10.0288 26.6956 17.6009 12.8767 10.5839
internal_count=800 306 188 494 115 118 69 44 87 41 118 379 78 40 70 301 119 115 53 49 94 182 62 162 55 43 40 76 56 46
is_linear=0
shrinkage=0.1


Tree=5
num_leaves=31
num_cat=0
split_feature=5 12 16 18 0 7 19 15 5 0 15 10 19 2 3 4 2 6 0 13 19 12 2 15 1 2 12 5 3 19
split_gain=74.9125 41.0146 40.8511 51.0827 31.4919 14.799 19.1777 16.2584 12.2894 11.1689 10.7411 18.9452 4.62766 4.25361 7.30141 8.28231 2.92246 1.43138 1.2916 1.12191 1.0237 0.840792 0.197502 0.625098 0.0675322 0.0635703 0.0503042 0.0433728 0.0148171 0.00728148
threshold=0.50686998382326542 0.35120782935195788 0.52928794112835831 0.41908672236380456 0.45123094754829723 0.48678880052550766 0.47028173269074808 0.55410305855786202 0.32345397085650712 0.37713374658877868 0.4588322803243618 0.3814465621897038 0.30937840698725888 0.4853085797147752 0.4561838992612412 0.45263119176126859 0.54054235377100934 0.46122948075793319 0.40935658152022764 0.58793493627561955 0.59702901802772812 0.39825553104480599 0.55605402006694449 0.62133335897453035 0.47351034249438484 0.51383242746943147 0.25263596054455262 0.56138076492694988 0.45416179208092988 0.41220232846183752
decision_type=2 2 2 2 2 2 2 2 2 2 2 2 2 2 2 2 2 2 2 2 2 2 2 2 2 2 2 2 2 2
left_child=1 4 3 12 -1 18 -7 -8 -6 -4 11 -3 -2 14 17 -16 -13 -12 -5 26 25 -15 23 -23 -19 28 -10 -14 -11 -24
right_child=2 10 9 5 8 6 7 -9 19 20 13 16 27 21 15 -17 -18 24 -20 -21 -22 22 29 -25 -26 -27 -28 -29 -30 -31
leaf_value=0.10062689004406944 -0.047630991800914825 -0.045986292218575177 -0.0039457878074072783 0.10417779219054742 0.022349726247836446 0.10960640573110461 -0.16128709418112436 0.062575432736653849 -0.14688444885110075 -0.15367094041074325 0.10543812642671505 0.074040860041216544 -0.16158927077880994 0.11055336478055613 0.10063553535998931 -0.037961186481215152 0.14599598931594135 0.13605059047716911 0.14716854320188941 -0.093370002996690613 -0.099269532610809119 0.11407304019746241 0.14410693667350774 0.14294014030832328 0.14628101479334821 -0.16290541072242021 -0.16160380891799186 -0.14885165907088335 -0.14647942620457685 0.14184166937013862
leaf_weight=18.31802761554718 6.4781375825405147 10.812132328748701 8.1061336249113101 11.376238554716112 7.8294137418270138 13.976007506251337 7.0930028557777387 5.9789925366640091 4.5522816628217679 4.697610288858419 19.298520892858505 10.02083480358124 4.7323879003524763 11.23040886223316 12.309543028473856 6.6361029148101798 12.924630582332609 12.28770385682583 18.118720173835754 4.4588758051395407 4.4584938734769812 11.368319749832152 20.367035686969757 22.05317497253418 13.587319076061247 4.7896970212459555 4.73869788646698 6.1438374519348145 7.3438286483287811 46.786879777908325
leaf_count=34 21 37 24 21 21 25 31 13 21 21 35 21 21 20 23 20 20 20 28 18 18 20 32 35 21 21 21 28 34 75
internal_value=0 0.0971319 -0.0041299 0.0355339 0.00419816 0.0815954 0.0281717 -0.0588947 -0.0776574 -0.10384 0.114815 0.0631468 -0.114541 0.124729 0.104196 0.0520892 0.114571 0.12605 0.130587 -0.134603 -0.141875 0.136505 0.139402 0.133121 0.141423 -0.153161 -0.154392 -0.154394 -0.149285 0.142529
internal_weight=0 249.58 103.293 73.8973 39.8973 56.543 27.048 13.072 21.5793 29.3958 209.683 33.7576 17.3544 175.925 64.1192 18.9456 22.9455 45.1735 29.495 13.7499 21.2896 111.806 100.575 33.4215 25.875 16.8311 9.29098 10.8762 12.0414 67.1539
internal_count=800 494 306 188 115 118 69 44 81 118 379 78 70 301 119 43 41 76 49 60 94 182 162 55 41 76 42 49 55 107
is_linear=0
shrinkage=0.1


Tree=6
num_leaves=31
num_cat=0
split_feature=5 12 0 12 2 15 2 15 10 5 16 0 14 7 17 10 4 14 18 7 14 7 7 6 15 2 0 12 15 15
split_gain=64.8807 39.5774 37.9983 30.0709 28.0855 16.624 13.0848 21.746 63.12 12.7895 12.0876 9.53878 9.00972 6.87801 4.01875 3.92218 3.90954 3.92978 3.90778 2.84598 2.67041 1.76898 1.02299 0.578157 0.443036 0.401466 0.339924 0.185131 0.106634 0.0497038
threshold=0.5437382329870174 0.36558580766746834 0.42543393489167902 0.64278601929809687 0.64383854303517662 0.28452026985644557 0.55605402006694449 0.53003058300331019 0.55203414841861176 0.39639197746749294 0.40057176144145129 0.61499238217675045 0.52499576918812185 0.66320273325302714 0.70113384510772991 0.48765255046117689 0.090287734435366487 1.0000000180025095e-35 0.57092833800161003 0.70774059597377226 0.47547567435010879 0.73269227587639985 0.53561319352239234 0.38818665653430984 0.44493747828123076 0.57707536719629904 0.40308547165228042 0.29277953366166964 0.71079082585208819 0.44637756258830891
decision_type=2 2 2 2 2 2 2 2 2 2 2 2 2 2 2 2 2 2 2 2 2 2 2 2 2 2 2 2 2 2
left_child=1 2 15 4 10 -3 7 8 19 11 13 -4 -5 -2 21 -1 -9 -18 20 24 -19 26 -11 -22 -7 -8 -12 -24 29 -27
right_child=3 5 9 12 -6 6 25 16 -10 22 14 -13 -14 -15 -16 -17 17 18 -20 -21 23 -23 27 -25 -26 28 -28 -29 -30 -31
leaf_value=0.052041021838170776 0.054336891848968921 -0.15864444737184641 0.057268091182305685 0.0030104356119241595 0.11843377953000299 -0.15338146273920994 0.11669319441598541 -0.30909044610688996 0.1291074085736281 -0.09832996643439533 -0.17151822680646744 -0.1122979944871354 0.14152720173976038 -0.097367407533482594 -0.040604781290378027 0.13805623522043986 -0.30909044610688996 0.088059844088660535 0.068947763608857723 -0.078565702343986007 0.11886976917706116 -0.083085727764894299 -0.14209862169974916 0.14190767133685492 -0.19632733826523074 0.14468367888846487 -0.1445235070305125 -0.16994368898981402 0.12918562020735799 0.13789791352939482
leaf_weight=8.6770172268152255 7.1573219895362836 2.3726146668195716 9.3018383532762545 8.0251762866973895 7.3435821533203116 4.82288810610771 10.2449634373188 0.21885830163955589 21.103144213557243 4.6564612835645667 6.683007940649996 5.1566744297742835 11.31863087415695 5.1311366558074951 4.6725021898746482 13.626114770770071 0.21885830163955589 15.151272282004355 15.022321611642836 4.5219744592905036 15.064279198646544 4.3749792277812949 4.9676124900579435 39.343310385942459 4.7857752293348312 13.248455643653868 15.445815131068228 4.5975489467382431 12.622732251882551 58.270073115825653
leaf_count=19 18 11 22 22 13 22 19 1 36 20 29 21 18 22 17 22 1 30 32 16 27 18 24 64 20 21 74 21 22 98
internal_value=0 0.0859781 0.00669357 -0.0220475 -0.0624452 0.104605 0.107515 0.0856402 0.0195829 -0.0694373 -0.0930055 -0.00320819 0.0840607 -0.00900836 -0.126114 0.104592 0.113016 0.114105 0.1152 -0.143984 0.125189 -0.141189 -0.13677 0.135529 -0.174771 0.135384 -0.152676 -0.155483 0.137659 0.139155
internal_weight=0 267.995 50.9833 70.1522 50.8083 217.012 214.639 120.253 35.2338 28.6801 43.4648 14.4585 19.3438 12.2885 31.1763 22.3031 85.0189 84.8 84.5812 14.1306 69.5589 26.5038 14.2216 54.4076 9.60866 94.3862 22.1288 9.56516 84.1413 71.5185
internal_count=800 569 149 231 191 420 409 249 94 108 178 43 40 40 138 41 155 154 153 58 121 121 65 91 42 160 103 45 141 119
is_linear=0
shrinkage=0.1


Tree=7
num_leaves=31
num_cat=0
split_feature=5 12 0 12 2 2 15 10 5 16 19 15 14 7 10 3 14 7 19 7 2 17 15 16 0 15 18 0 15 19
split_gain=55.8691 34.6406 32.104 25.3571 23.7871 13.0569 22.803 57.7064 11.1118 10.6453 11.0024 8.02236 7.9863 4.82449 3.64026 3.56689 3.88554 3.33281 1.07397 0.87132 0.681109 0.948684 0.280231 0.239322 0.160869 0.0823362 0.0556208 0.0446268 0.0412128 0.00273814
threshold=0.5437382329870174 0.36558580766746834 0.42543393489167902 0.64278601929809687 0.64383854303517662 0.55605402006694449 0.53003058300331019 0.55203414841861176 0.39639197746749294 0.42263963327633147 0.56304057904062421 0.70241929764234434 0.52499576918812185 0.73269227587639985 0.48765255046117689 0.55797350180790251 0.47547567435010879 0.75152511060369886 0.55718254375416187 0.62644650422659287 0.44520265941406151 0.47366169318937945 0.44843284467862249 0.49786454913334593 0.56962981379712485 0.62586702525567828 0.41034308528921726 0.40308547165228042 0.45366659503097617 0.39570756172462251
decision_type=2 2 2 2 2 2 2 2 2 2 2 2 2 2 2 2 2 2 2 2 2 2 2 2 2 2 2 2 2 2
left_child=1 2 14 4 9 6 7 17 11 10 -2 -4 -5 23 -1 16 -8 22 24 26 21 -18 -3 -11 -10 -22 -7 -25 -28 -29
right_child=3 5 8 12 -6 19 15 -9 18 13 -12 -13 -14 -15 -16 -17 20 -19 -20 -21 25 -23 -24 27 -26 -27 28 29 -30 -31
leaf_value=0.04764109680069617 0.039466497567930178 -0.14782408280558365 0.052907625737487397 0.0027105918319195788 0.1121322243743383 0.12599552480862428 0.071086340500571263 0.12318462172238774 -0.16267900134080712 -0.16431849209478974 -0.14567954056534246 -0.10360519563031333 0.13458267889714656 -0.039836076588886958 0.13184230618824458 0.058346709775572984 0.13962765404778885 -0.058681574657456742 -0.086921583055114368 0.10521785569476927 0.14433625624980542 0.097289794720043579 -0.17948393580885447 -0.14836178364257338 -0.13638002991442044 0.13386538792775027 0.13863132542354514 -0.13851488578147084 0.13244470069442496 -0.13539558817487748
leaf_weight=8.5380692034959811 10.16395443677902 6.071769103407858 9.1727960705757159 8.0218119174242037 6.9986520558595648 10.790090397000311 15.087827518582342 19.965025037527084 4.1753927171230298 5.1265050917863908 4.6910013258457175 5.0934129506349555 10.742177724838255 5.4054019153118125 12.880024090409277 12.787066936492918 9.0839778780937213 4.2748620510101309 4.1389097422361365 13.688251391053198 12.328746199607851 12.680456057190893 5.181646004319191 4.292935103178027 5.2509989589452744 19.212679862976074 13.651095092296599 4.3838451355695707 50.979452729225159 7.8591163754463196
leaf_count=19 28 29 22 22 13 20 32 36 20 23 23 21 18 21 22 29 15 16 18 27 20 25 22 20 27 34 23 22 92 41
internal_value=0 0.0815761 0.00624089 -0.0206241 -0.0585308 0.0996059 0.0775924 0.0107331 -0.0645863 -0.0870215 -0.0190002 -0.00297158 0.0782059 -0.124352 0.0982765 0.106824 0.115888 -0.133848 -0.129385 0.128429 0.128568 0.114961 -0.162402 -0.145441 -0.148029 0.137958 0.132642 -0.139589 0.133751 -0.136513
internal_weight=0 255.033 49.2496 67.6854 48.9214 205.783 116.674 35.4933 27.8315 41.9228 14.855 14.2662 18.764 27.0678 21.4181 81.1808 68.3937 15.5283 13.5653 89.1089 53.3059 21.7644 11.2534 21.6624 9.42639 31.5414 75.4206 16.5359 64.6305 12.243
internal_count=800 569 149 231 191 420 258 103 108 178 51 43 40 127 41 155 126 67 65 162 94 40 51 106 47 54 135 83 115 63
is_linear=0
shrinkage=0.1


Tree=8
num_leaves=31
num_cat=0
split_feature=5 12 0 7 0 19 2 3 2 3 3 15 10 12 17 10 14 7 2 17 5 12 15 18 16 15 12 12 14 3
split_gain=48.263 30.4231 27.1983 21.5568 25.3562 12.7868 12.0901 19.5138 14.5738 11.2269 17.5232 8.54225 36.3996 7.92646 5.48321 3.41236 3.38051 0.905949 0.608482 0.92785 0.353559 0.135206 0.0585623 0.0570865 0.0465127 0.0279901 0.00730967 0.00686478 0.00173883 0.00147816
threshold=0.5437382329870174 0.36558580766746834 0.42543393489167902 0.34395616982494931 0.34237990310713301 0.43901451356580068 0.55605402006694449 0.56055115613794981 0.50738657010579813 0.60974649943382664 0.4142224672191494 0.53672812402412273 0.49484166255842543 0.67037769579899764 0.71591259380852146 0.48765255046117689 0.47547567435010879 0.62644650422659287 0.44520265941406151 0.47787890324149873 0.44585989756793698 0.54807184948956933 0.62586702525567828 0.41034308528921726 0.50825989596415122 0.45366659503097617 0.26670616396467905 0.36558580766746834 0.64549024629920304 0.48921782531699515
decision_type=2 2 2 2 2 2 2 2 2 2 2 2 2 2 2 2 2 2 2 2 2 2 2 2 2 2 2 2 2 2
left_child=1 2 15 -2 5 -5 7 11 -9 10 -4 12 -3 14 21 -1 -13 23 19 -18 -12 24 -20 -8 -6 -25 -22 -26 -27 -29
right_child=3 6 9 4 13 -7 17 8 -10 -11 20 16 -14 -15 -16 -17 18 -19 22 -21 26 -23 -24 25 27 28 -28 29 -30 -31
leaf_value=0.043596719802252243 0.11405862731979438 -0.13568888161443346 0.041121246000065857 0.10353677423894976 -0.14421198383007636 -0.050004328098983419 0.12142190706088576 -0.13021355025797429 0.052594391221904228 0.0817602502775477 -0.16473121319047249 0.068160544936985687 0.11690835512567535 0.0069483567824881066 -0.012263164245290243 0.12651772950473844 0.13516174296847944 0.099677637959701512 0.13874390674731921 0.093079086898075925 -0.13122032098613956 -0.15636347892841004 0.1296314539156182 0.13369473091296469 -0.13701077553940141 0.12918686655024458 -0.13742055934097533 -0.13329586567029081 0.12794387781800981 -0.1305765218350676
leaf_weight=8.404366075992586 10.209068983793257 7.9244834333658245 7.0290959775447908 12.766708344221117 6.406029403209696 9.4304152429103834 10.111934572458265 7.3333741575479534 10.759129390120505 4.6146469116210929 7.6951964497566205 13.824241429567335 20.366475388407707 5.7032230943441382 3.848400503396987 12.119192391633986 9.1545143127441424 13.038280978798864 11.628366351127626 12.250352784991263 3.7926736176013947 4.6729305237531653 17.922517061233521 12.784237384796141 4.0758851766586295 18.322460293769836 3.8131129592657089 4.0955494791269285 29.174769997596741 3.9046619832515717
leaf_count=19 20 35 20 26 32 35 20 30 29 11 36 30 39 16 14 22 16 27 20 25 21 23 34 23 21 35 20 22 57 22
internal_value=0 0.0776092 0.00582958 -0.0193754 -0.0441868 0.0383051 0.0951187 0.0735247 -0.0215025 -0.0602335 -0.0895774 0.0919975 0.0461542 -0.100172 -0.122796 0.0925617 0.112018 0.12389 0.123917 0.111077 -0.149619 -0.141167 0.133217 0.128375 -0.137324 0.129541 -0.134329 -0.13367 0.128423 -0.131969
internal_weight=0 242.063 47.4683 65.1129 54.9038 22.1971 194.595 111.163 18.0925 26.9447 22.3301 93.071 28.291 32.7067 27.0035 20.5236 64.78 83.4317 50.9558 21.4049 15.301 23.1551 29.5509 70.3934 18.4821 60.2815 7.60579 12.0761 47.4972 8.00021
internal_count=800 569 149 231 211 61 420 258 59 108 97 199 74 150 134 41 125 162 95 41 77 120 54 135 97 115 41 65 92 44
is_linear=0
shrinkage=0.1


Tree=9
num_leaves=31
num_cat=0
split_feature=5 12 15 16 12 2 14 2 15 10 2 15 5 14 19 10 13 16 2 12 8 15 11 12 16 14 11 5 5 7
split_gain=43.2376 39.8509 27.6997 22.1173 20.3144 13.1288 8.14647 7.72662 7.44202 12.8381 5.68616 7.25644 4.43377 5.28538 11.5263 4.34666 3.06842 2.34544 2.79345 1.70084 0.654841 0.549724 0.536597 0.423412 0.157557 0.0997278 0.0729418 0.0560982 0.0347701 0.00931421
threshold=0.47030327970308289 0.45091542618052921 0.43668368270034125 0.52928794112835831 0.25496500622975055 0.63264466694504429 0.33682308107227926 0.51187239407030549 0.4588322803243618 0.42567715660979705 0.51187239407030549 0.55410305855786202 0.2889645655011846 0.49836244329830159 0.42552379406038038 0.40233016685428752 0.54517881064058626 0.57605552084664169 0.39903848885919474 0.42451725361392817 0.45159570591815618 0.53800287427166393 0.53591159541693389 0.39084034663930428 0.50265105163250123 0.57366884345021363 0.57281919989211671 0.37997777739268551 0.53376362252009069 0.62096056926944165
decision_type=2 2 2 2 2 2 2 2 2 2 2 2 2 2 2 2 2 2 2 2 2 2 2 2 2 2 2 2 2 2
left_child=4 5 15 10 -1 6 -2 16 9 -6 11 -4 23 14 -14 -3 -5 18 -15 22 -20 -12 24 -10 -8 -22 -25 -27 -23 -26
right_child=1 2 3 7 8 -7 19 -9 12 -11 21 -13 13 17 -16 -17 -18 -19 20 -21 25 28 -24 26 29 27 -28 -29 -30 -31
leaf_value=-0.067039756928887154 -0.008045798192128582 -0.1520247030825998 -0.010175251631758619 -0.041781499882575776 -0.039818888598457274 0.073789757728988437 -0.15505355003531568 0.051609709013364348 0.14706149861959159 0.10365482968331011 0.10073688877870129 0.097217085987927943 0.10211619305463859 0.062956297452378115 -0.052098524485387245 -0.032043529226686802 -0.15666247406739728 0.062556641393179749 0.10310740568327306 -0.077546825815086873 0.1354803933839627 0.1258514688095996 -0.17534144585663505 0.12813439824625125 -0.12817999357508311 0.11770812428392619 0.11741261117529933 0.1271164282389142 0.13358643030416442 -0.13491191571015698
leaf_weight=8.2333041429519636 6.0761564373970058 6.5349543839693052 9.670453220605852 4.6634561717510206 10.603836342692377 4.4611615836620322 4.1607172936201158 5.3687503784894934 11.782251596450804 15.143554314970968 9.2589327096939069 18.008777856826782 13.667750850319864 10.134994179010389 7.5095220953226081 5.6128868609666824 4.636529728770256 11.676278099417685 16.115642532706261 3.7875697761774054 10.3468881547451 12.181975752115251 6.1130164414644232 18.746572405099872 4.5638266354799253 9.4282663315534609 9.591630816459654 19.333476960659027 11.11313760280609 3.7391423135995865
leaf_count=36 22 32 32 21 39 12 21 15 20 33 21 37 28 24 25 21 24 29 35 16 19 25 30 37 27 20 20 39 20 20
internal_value=0 0.00804855 0.0434842 0.0662015 0.0862395 -0.0857058 -0.110724 -0.0439122 0.0939308 0.0445664 0.0930177 0.0596968 0.103119 0.0916762 0.0474312 -0.0965876 -0.0990557 0.103839 0.111214 -0.138621 0.120071 0.121349 -0.151073 0.131129 -0.139171 0.127061 0.124505 0.124032 0.129541 -0.131212
internal_weight=0 119.951 87.0499 74.902 172.314 32.9016 28.4404 14.6687 164.081 25.7474 60.2333 27.6792 138.333 98.2128 21.1773 12.1478 9.29999 77.0355 65.3593 22.3643 55.2243 32.554 18.5767 40.1205 12.4637 39.1086 28.3382 28.7617 23.2951 8.30297
internal_count=800 396 248 195 404 148 136 60 368 72 135 69 296 219 53 53 45 166 137 114 113 66 98 77 68 78 57 59 45 47
is_linear=0
shrinkage=0.1


Tree=10
num_leaves=31
num_cat=0
split_feature=5 12 15 16 12 2 2 3 15 10 2 14 5 14 19 12 16 10 8 13 10 6 14 15 11 9 14 2 14 5
split_gain=37.493 31.5466 26.6415 19.1674 17.3919 8.42436 7.19809 9.92972 7.12121 10.6355 6.73538 5.37428 4.39055 6.23153 11.2557 3.63469 2.98711 2.95034 2.91596 2.71475 1.02494 0.730313 1.79039 0.560252 0.427947 0.336425 0.146761 0.0624693 0.0331655 0.0206373
threshold=0.47333786776203346 0.43427896552761303 0.43668368270034125 0.52928794112835831 0.25496500622975055 0.5855282796310155 0.51041423174195899 0.55478490481672882 0.4588322803243618 0.3814465621897038 0.51187239407030549 0.34177389844563177 0.33256969478955234 0.49836244329830159 0.44307511678363548 0.61246126547087598 0.5651054905413776 0.51242949491929124 0.46092681862610163 0.54517881064058626 0.5266620724055554 0.47964282563807287 0.57168119827056463 0.53800287427166393 0.53591159541693389 0.33047828236840077 0.55171531730813606 0.41046694345215629 0.65449272217639953 0.53376362252009069
decision_type=2 2 2 2 2 2 2 2 2 2 2 2 2 2 2 2 2 2 2 2 2 2 2 2 2 2 2 2 2 2
left_child=4 5 15 6 -1 11 7 17 9 -6 19 -2 21 14 -14 -3 18 -4 -15 -5 -11 22 -10 -8 27 -20 -23 -13 -27 -25
right_child=1 2 3 10 8 -7 23 -9 12 20 -12 24 13 16 -16 -17 -18 -19 25 -21 -22 26 -24 29 -26 28 -28 -29 -30 -31
leaf_value=-0.061251831756060665 -0.028716308917639922 -0.14537535791602038 0.047113747948384251 -0.041493359849169312 -0.047604321325319096 0.023146667811834394 0.097008367510689211 -0.046319019007028055 0.070129499937169812 0.060550342792192506 0.046716359205349861 -0.14328388395505173 0.088762454579600025 0.068946241462439786 -0.090700932295878917 -0.039255283272024974 0.046264465871454004 0.12538181037887436 0.10484986948930437 -0.14953632044221962 0.11007494104671456 0.1396064576982213 0.12651491414656199 0.12331931279810773 -0.16724300829062264 0.12999155122163628 0.12505447896093833 -0.12718673579342563 0.12305136851277731 0.1294290417128735
leaf_weight=8.1165199279785138 5.268751844763762 6.9244936406612378 9.630226552486425 4.7696299254894239 8.9105090796947497 5.4318163096904746 9.3664546012878436 7.9936987608671179 8.5728297531604785 7.6832254379987743 5.3395768553018561 3.7985641807317752 9.959330737590788 14.746567264199255 5.3840708285570136 6.0452919155359268 9.7619465291500074 9.6345321089029294 9.1350447535514814 4.5385612994432449 9.1620162278413755 10.843317031860353 16.412526577711105 11.852418631315233 5.6577688604593268 15.726014107465746 19.20627549290657 6.5991290062665939 12.248787134885786 10.361733704805372
leaf_count=36 21 37 25 22 34 18 22 29 20 20 15 20 22 37 20 22 27 18 21 25 20 20 34 26 29 31 41 41 27 20
internal_value=0 0.00685724 0.036223 0.0595437 0.081504 -0.088032 0.0850254 0.047378 0.0888489 0.0407502 -0.0428149 -0.116352 0.0982341 0.0828114 0.0257879 -0.0959122 0.0970107 0.0862565 0.106564 -0.0941738 0.0874864 0.119801 0.107168 0.11752 -0.145111 0.121512 0.130306 -0.133067 0.126953 0.126169
internal_weight=0 113.213 86.4566 73.4868 165.869 26.756 58.8391 27.2585 157.752 25.7558 14.6478 21.3242 131.997 76.9618 15.3434 12.9698 61.6184 19.2648 51.8564 9.30819 16.8452 55.0349 24.9854 31.5806 16.0555 37.1098 30.0496 10.3977 27.9748 22.2142
internal_count=800 390 261 202 410 129 140 72 374 74 62 111 300 185 42 59 143 43 116 47 40 115 54 68 90 79 61 61 58 46
is_linear=0
shrinkage=0.1


Tree=11
num_leaves=31
num_cat=0
split_feature=5 12 0 5 7 0 2 15 10 10 19 17 12 18 14 7 6 7 0 15 12 15 18 15 14 5 16 1 16 14
split_gain=32.6649 22.6516 22.1527 16.0337 15.4497 17.3503 11.5347 16.1419 38.9586 11.462 10.9372 5.72805 5.28159 4.06286 3.22749 2.73664 1.6497 1.09273 0.975457 0.192006 0.134579 0.105886 0.0695223 0.054678 0.0380054 0.0348579 0.0280011 0.00185843 0.00147477 0.00134284
threshold=0.5437382329870174 0.36558580766746834 0.37713374658877868 0.2889645655011846 0.37587354016924202 0.34482091795097158 0.55605402006694449 0.53003058300331019 0.55203414841861176 0.54632894786092889 0.43901451356580068 0.71845923635749065 0.67037769579899764 0.59696241361795466 0.47547567435010879 0.75152511060369886 0.38818665653430984 0.62644650422659287 0.51789902141452193 0.44843284467862249 0.54807184948956933 0.61799638607186824 0.41034308528921726 0.44637756258830891 0.65449272217639953 0.45728061049144347 0.50825989596415122 0.58264343124490015 0.49378477291412309 0.57857834589796264
decision_type=2 2 2 2 2 2 2 2 2 2 2 2 2 2 2 2 2 2 2 2 2 2 2 2 2 2 2 2 2 2
left_child=1 2 -1 -4 -2 10 7 8 15 18 -6 12 20 14 -9 19 -16 22 -5 -3 26 -18 -8 -24 -23 -20 -7 29 -25 -28
right_child=4 6 3 9 5 11 17 13 -10 -11 -12 -13 -14 -15 16 -17 21 -19 25 -21 -22 24 23 28 -26 -27 27 -29 -30 -31
leaf_value=0.10699745447285398 0.093585229652737079 -0.13641779744572541 0.076244269668044221 -0.1874494897847733 0.092464997655668499 -0.13318702277302963 0.11203298213697355 0.055494030551245868 0.10761042480413247 -0.0077868049920555909 -0.059139951153327021 0.025254241008588751 -0.014767519304356897 0.02664449114664106 0.079806056837264064 -0.051105334644292247 0.13058102895018686 0.086284308211186989 -0.13722231018964956 -0.16418146735586633 -0.14749702309989696 0.12267174940209236 0.12844248394754118 0.11989315108131288 0.11376755747528 -0.12292666263300833 -0.12393918508885825 -0.12220509511149598 0.12124884599586912 -0.12670938566607004
leaf_weight=13.751058191061018 10.273747712373732 5.1673288717865962 7.7581437379121807 5.3283335417509097 11.644462615251543 5.5702081024646857 8.1799128800630552 13.279942989349363 15.791165694594381 9.2743316888809186 8.0470896959304792 3.6433748453855506 4.7824537009000769 9.0591111779212934 11.837128371000288 3.9107055813074103 12.668114423751829 11.068490013480185 3.5588754564523697 4.809211403131485 4.3023353517055503 11.156002908945085 10.367424219846724 28.139333546161652 8.4050507396459562 3.2755285501480103 3.8138663247227651 2.9067531377077103 11.225092351436613 3.2333602905273438
leaf_count=28 24 29 19 25 26 32 20 32 36 35 33 13 15 24 29 16 25 27 20 22 23 25 21 68 20 22 25 20 26 20
internal_value=0 0.0670426 0.00234769 -0.0469428 -0.0176992 -0.041546 0.0838749 0.0614767 0.000166354 -0.0915245 0.0305106 -0.0917686 -0.109094 0.0888779 0.0987091 -0.122008 0.111733 0.115074 -0.155376 -0.149801 -0.131847 0.123458 0.120576 0.121981 0.118846 -0.130371 -0.12751 -0.124333 0.12028 -0.12521
internal_weight=0 208.01 42.9463 29.1952 58.2177 47.9439 165.064 96.0838 29.6784 21.4371 19.6916 28.2524 24.609 66.4054 57.3462 13.8872 44.0663 68.9803 12.1627 9.97654 19.8265 32.2292 57.9118 49.7319 19.5611 6.8344 15.5242 9.95398 39.3644 7.04723
internal_count=800 569 149 121 231 207 420 258 103 102 59 148 135 155 131 67 99 162 67 51 120 70 135 115 45 42 97 65 94 45
is_linear=0
shrinkage=0.1


Tree=12
num_leaves=31
num_cat=0
split_feature=5 12 15 12 16 2 14 5 2 15 10 5 6 2 3 18 10 16 10 15 11 3 14 11 4 0 12 4 14 12
split_gain=29.0582 26.5107 19.1923 14.367 14.3401 9.93118 8.12845 6.29549 9.99273 11.6594 14.9182 6.01873 5.52147 4.73574 6.14103 4.29085 3.53512 3.38427 2.02236 1.74267 1.54855 1.38065 6.02571 0.588214 0.462401 0.135078 0.100497 0.0640149 0.0306864 0.0165258
threshold=0.47030327970308289 0.45091542618052921 0.45366659503097617 0.25496500622975055 0.52928794112835831 0.64383854303517662 0.32292326707146474 0.33083852666671726 0.57581719981941204 0.52195296932149648 0.55203414841861176 0.66342103862763646 0.35685287898849799 0.51187239407030549 0.55576545566328817 0.42486099244186187 0.40233016685428752 0.43025398354085137 0.51242949491929124 0.62953382199937413 0.68330892940140364 0.4041133498119584 0.57366884345021363 0.57766372467366256 0.41032185837590035 0.49395726467753548 0.41548937131513064 0.46824839041469818 0.55726775687505903 0.38225439522775556
decision_type=2 2 2 2 2 2 2 2 2 2 2 2 2 2 2 2 2 2 2 2 2 2 2 2 2 2 2 2 2 2
left_child=3 5 16 -1 13 6 -2 21 9 10 -9 -6 -11 14 18 -10 -3 -14 -4 -19 23 26 -23 25 -15 -8 -5 -24 -17 -27
right_child=1 2 4 7 11 -7 20 8 15 12 -12 -13 17 24 -16 28 -18 19 -20 -21 -22 22 27 -25 -26 29 -28 -29 -30 -31
leaf_value=-0.057824584943365967 0.012850193507930414 -0.12685223773682 0.050039093514936267 0.13349500099121681 0.0094223162840324781 0.072385497717941491 -0.14671684739904195 -0.14067100367986282 0.038254676142883207 -0.025826141374931905 0.089625706017792683 -0.13982636047570268 0.11830439984766826 0.094088226081641801 -0.027811900838287714 0.12599035355265129 -0.020986515061543341 0.014024277013488913 0.11661224680117535 0.082564570249817421 -0.066490247033584277 0.01948385574709775 0.12656836658403675 -0.17941544980042701 0.12230375360301052 -0.12180830887923073 0.12053766307424824 0.11579821179964678 0.11897489523496232 -0.13086440048055023
leaf_weight=7.7180704921483985 5.1993565112352433 6.5280127599835378 9.3574613928794914 9.8246470987796801 9.0907479375600797 3.9374427497386923 3.9443413689732614 7.2849472165107709 7.9465550482273093 5.7551026344299308 4.5819625705480576 3.8447392508387557 13.300768256187441 8.7497127056121844 6.972946196794509 9.035381883382799 6.1032097637653351 7.3018129020929319 8.906094476580618 7.5402572453022003 3.4296814352273932 8.0295233130455035 9.1693755984306353 3.1241625472903243 17.277004420757294 6.4171819463372213 15.319341540336607 13.86130206286907 20.116795063018799 2.9373705461621284
leaf_count=36 19 35 25 20 34 11 22 36 24 18 12 23 31 23 25 20 25 21 18 19 16 25 20 17 40 45 37 34 51 18
internal_value=0 0.00623265 0.0369783 0.0749761 0.0591478 -0.0752513 -0.0984555 0.0823463 0.0648235 0.0335574 -0.0517506 -0.034938 0.0634218 0.082889 0.0520226 0.103393 -0.0756996 0.0816726 0.082503 0.048845 -0.127606 0.108181 0.094079 -0.140369 0.112818 -0.131196 0.125601 0.120086 0.121149 -0.124652
internal_weight=0 105.819 76.8299 146.786 64.1987 28.9895 25.0521 139.068 82.8636 45.7649 11.8669 12.9355 33.8979 51.2632 25.2365 37.0987 12.6312 28.1428 18.2636 14.8421 19.8527 56.2042 31.0602 16.4231 26.0267 13.2989 25.144 23.0307 29.1522 9.35455
internal_count=800 396 248 404 188 148 137 368 232 137 48 57 89 131 68 95 60 71 43 40 118 136 79 102 63 85 57 54 71 63
is_linear=0
shrinkage=0.1


Tree=13
num_leaves=31
num_cat=0
split_feature=5 12 15 16 12 2 14 14 3 0 2 15 10 2 3 15 18 14 15 18 8 7 7 11 15 12 0 15 5 2
split_gain=25.4081 22.9069 19.4336 14.5623 12.4797 7.20119 6.97368 6.0397 17.1358 12.9932 5.75239 7.40179 15.8463 4.59891 10.0543 11.8753 3.56237 2.64107 2.33369 1.60275 1.23154 0.699023 0.688714 0.349596 0.25815 0.12726 0.103643 0.0366808 0.0201139 0.0141005
threshold=0.47030327970308289 0.41879434641313257 0.45366659503097617 0.52928794112835831 0.25496500622975055 0.5855282796310155 0.48934178276470047 0.49681697675102726 0.39484250134268739 0.39107587822355028 0.49965849760045727 0.67315050736471005 0.51242949491929124 0.52232098924429582 0.51694951404738732 0.61101151600484183 0.47361689971957349 0.34177389844563177 0.53091570621592299 0.36316929171124285 0.50245886120423455 0.57601889801918449 0.73346300334524994 0.63013510048498989 0.70856224773063026 0.57927041839764626 0.49000979372101278 0.50023601311586907 0.53848986933198117 0.42826819307940017
decision_type=2 2 2 2 2 2 2 2 2 2 2 2 2 2 2 2 2 2 2 2 2 2 2 2 2 2 2 2 2 2
left_child=4 5 16 10 -1 17 -5 8 -6 -10 11 12 -4 14 18 -16 22 -2 -9 -15 -8 28 -3 26 -20 27 -19 -21 -12 -28
right_child=1 2 3 6 7 -7 20 13 9 -11 21 -13 -14 19 15 -17 -18 23 24 25 -22 -23 -24 -25 -26 -27 29 -29 -30 -31
leaf_value=-0.052786641380679247 -0.045556559925405492 -0.15214476238497709 -0.10219117289285831 0.045820681380068895 0.11354469195278004 0.020843476215785538 -0.13364087602924696 0.051222872555763313 0.044711094245976316 -0.14650454001827429 0.11720565827775997 0.1197119030544197 0.093281977414067088 0.07442485969652532 -0.10517836165323202 0.082698446109935209 -0.02021000967827459 -0.1428030602872177 0.12109140116206372 0.12424053655593073 -0.054039353920341204 0.08443124959044046 -0.092076554965164259 -0.16845620757148094 0.098462297226761808 0.10559682669422386 -0.12649385022282819 0.11761015615346154 0.12370379665820426 -0.11735889867449707
leaf_weight=7.6148511320352545 4.1758165806531968 3.8855691999196988 7.5666600763797822 5.7142995074391347 15.115803465247156 5.0746451169252387 4.4848238751292229 8.0230723470449465 8.1404250115156156 6.3067745715379706 10.297988772392278 8.4584439247846586 9.1769508570432645 10.701057523488997 6.3489214926958066 7.1567026525735855 6.1137292459607124 3.3649770095944387 15.686968982219698 12.197902679443358 3.430100217461586 7.6361895948648444 3.7517822235822678 2.7739850282669059 7.4285037517547599 7.6625591814517966 3.016049787402153 26.406942337751389 8.8631388545036298 3.8425120040774345
leaf_count=36 19 21 33 19 35 18 28 24 24 31 28 17 21 31 26 18 27 20 38 28 17 21 21 15 20 22 20 71 20 31
internal_value=0 0.00586141 0.0309957 0.0536445 0.0716702 -0.0838166 -0.0383648 0.0788951 0.0391136 -0.0387621 0.0777604 0.0434637 0.00494507 0.090469 0.0664371 -0.00562143 -0.0770978 -0.114743 0.0976908 0.109302 -0.0991439 0.110015 -0.122637 -0.136971 0.113819 0.117369 -0.128428 0.119705 0.120211 -0.121376
internal_weight=0 101.628 79.3797 65.6286 138.79 22.248 13.6292 131.176 29.563 14.4472 51.9994 25.2021 16.7436 101.613 44.6442 13.5056 13.7511 17.1733 31.1385 56.9685 7.91492 26.7973 7.63735 12.9975 23.1155 46.2674 10.2235 38.6048 19.1611 6.85856
internal_count=800 396 273 204 404 123 64 368 90 55 140 71 54 278 126 44 69 105 82 152 45 69 42 86 58 121 71 99 48 51
is_linear=0
shrinkage=0.1


Tree=14
num_leaves=31
num_cat=0
split_feature=5 12 5 2 3 15 10 0 18 7 16 0 10 16 7 12 12 10 15 14 11 15 12 15 12 1 16 7 18 3
split_gain=23.2686 20.3336 19.5301 14.2174 13.879 25.0376 9.83661 9.77132 7.87189 7.59389 7.45044 4.5089 3.41693 2.40886 2.04166 1.95703 2.07011 1.50684 3.00158 0.732439 0.277125 0.240946 0.227358 0.03848 0.017886 0.00978965 0.0039207 0.00320479 0.00159186 0.000366562
threshold=0.61865492735233529 0.38689733032053669 0.39888081031748057 0.57397263277186583 0.465539250919417 0.54481495003060088 0.46875582216364586 0.5534444757779492 0.506433346238084 0.45839123354460565 0.49128294265074385 0.35186906188986039 0.48765255046117689 0.55842846789360256 0.49461455843843 0.34116567176991358 0.3042911736693828 0.54341597928438867 0.64310602889944757 0.5174885001749393 0.50802503811291866 0.47798477346326457 0.54807184948956933 0.4588322803243618 0.52849068211680927 0.46541952793846003 0.57216661776482303 0.60824537768501541 0.61109387858991582 0.59024387582603111
decision_type=2 2 2 2 2 2 2 2 2 2 2 2 2 2 2 2 2 2 2 2 2 2 2 2 2 2 2 2 2 2
left_child=1 2 7 4 13 6 21 12 15 -2 14 -11 -1 17 -7 16 25 18 -3 -5 -19 24 26 -21 -6 -4 -13 28 29 -25
right_child=9 3 8 19 5 10 -8 -9 -10 11 -12 22 -14 -15 -16 -17 -18 20 -20 23 -22 -23 -24 27 -26 -27 -28 -29 -30 -31
leaf_value=0.036424405031582278 0.031821336314033673 0.027551232516251564 -0.12802541642717988 0.086389131919350895 -0.12005313332279317 0.11675709619794966 0.026407689700956378 -0.040656513221609319 0.02291984387464056 -0.022478572190281584 -0.009508828416103279 -0.12310851024006982 0.12350851493137852 0.036580338385154523 0.0579986421378373 -0.17187044920740113 -0.024707114896750169 0.098640696343471501 0.10609219144203069 0.12226010006940613 0.12212072345103825 -0.15561289820755941 -0.15195117967331184 0.11466628943134449 -0.12961665568321296 -0.12040362014518152 -0.11823213757209938 0.11681367060534267 0.11582268122572992 0.11378033814481553
leaf_weight=7.3821315765380922 7.4153552502393749 7.9477284550666836 3.3631231263279933 9.8582466095685941 3.3151369616389292 13.814594358205797 5.4200324416160575 8.2787885963916761 5.3705293387174597 6.1196538060903576 10.43562827259302 2.950063116848467 11.563224524259565 8.4577844366431219 10.33933901786804 4.6997710317373267 3.0313086733222008 7.9524015486240414 12.548210084438322 9.1987422704696638 13.662730991840361 4.0356960967183104 3.4626575112342834 7.0009412765502992 4.7685567513108253 3.3777223229408264 3.737997755408287 7.6899318397045127 6.9321850836276999 14.027323454618452
leaf_count=21 29 24 22 28 25 34 17 34 20 23 38 21 27 28 29 26 16 22 33 22 34 20 17 21 29 25 30 21 20 44
internal_value=0 0.0526475 -0.00502162 0.0698914 0.0479562 0.0117485 -0.085576 0.0499725 -0.0804744 -0.0520515 0.061099 -0.0902773 0.0895759 0.0852809 0.0916049 -0.118844 -0.0933418 0.0950622 0.0756363 0.111069 0.113482 -0.135657 -0.131152 0.116494 -0.125695 -0.124206 -0.120383 0.115006 0.114509 0.114075
internal_weight=0 204.472 47.0666 157.405 102.698 52.129 17.5394 27.2241 19.8425 23.6857 34.5896 16.2704 18.9454 50.5689 24.1539 14.4719 9.77215 42.1111 20.4959 54.7074 21.6151 12.1194 10.1507 44.8491 8.08369 6.74085 6.68806 35.6504 27.9604 21.0283
internal_count=800 680 191 489 333 192 91 82 109 120 101 91 48 141 63 89 63 113 57 156 56 74 68 128 54 47 51 106 85 65
is_linear=0
shrinkage=0.1


Tree=15
num_leaves=31
num_cat=0
split_feature=5 12 5 16 2 3 15 14 12 10 2 0 2 19 17 6 19 16 15 0 6 17 0 5 12 2 14 14 15 14
split_gain=20.6852 15.5544 13.3975 11.6904 11.583 12.288 26.682 10.4017 9.90026 7.64894 5.35783 5.20688 4.82031 4.45809 5.01341 2.56619 2.36392 2.15822 0.761523 0.671426 0.604984 0.365926 0.0913302 0.0877382 0.0821536 0.0287356 0.01524 0.00901115 0.00769882 0.00396579
threshold=0.5437382329870174 0.31002262685515497 0.27857671124706501 0.29383816776711025 0.57581719981941204 0.39484250134268739 0.53091570621592299 0.47547567435010879 0.64278601929809687 0.50154342909406446 0.63341534053820936 0.52625922520208357 0.39903848885919474 0.40802028605654722 0.5653173999200547 0.41212430020563012 0.37969428540338834 0.55371046082818398 0.45250201652511773 0.61387033978889127 0.38818665653430984 0.56813231513925222 0.33056163918080733 0.39639197746749294 0.39492175367201671 0.50031617184175314 0.46389977279636646 0.57488867864677229 0.46199308713553661 0.42262366573379578
decision_type=2 2 2 2 2 2 2 2 2 2 2 2 2 2 2 2 2 2 2 2 2 2 2 2 2 2 2 2 2 2
left_child=1 2 -1 -2 5 15 9 -8 10 18 13 -4 -9 14 -5 -3 -6 20 21 22 -14 -7 -15 -13 -18 -22 -17 29 -26 -24
right_child=3 4 11 8 16 6 7 12 -10 -11 -12 23 17 19 -16 26 24 -19 -20 -21 25 -23 27 -25 28 -27 -28 -29 -30 -31
leaf_value=0.089710854674435181 0.087831071661749527 0.054346404047729183 -0.0095323647234821368 -0.098300421341483465 0.060791678023520583 -0.089077135180577555 -0.06213617775980923 0.0015665918250513803 0.040569765956602832 0.016922595482784335 0.044460785354437884 -0.14196124277789829 0.085168124139628543 -0.13875237686863004 0.044333820457621562 0.11978497925635681 0.1249792592459424 0.048993404110567941 -0.16505208268217153 -0.071437945386704851 0.12336498177429336 -0.13445944614765118 -0.12183152422038485 -0.12088393546889156 0.1169113328088614 0.11533535159573929 0.11451081069692184 -0.12615106374351562 0.11321435019883086 -0.11685966803652047
leaf_weight=7.2249758541584042 8.7691309154033643 9.2719195634126681 6.4914978295564643 5.3680029362440163 9.4080890417098981 3.49825117737055 5.9591028094291678 6.5866462886333457 11.22345422208309 4.8898631483316413 3.609738513827323 3.2784542888402921 7.2483421266078976 4.4297709241509464 4.5555278137326241 10.772286742925646 8.4677044749259931 7.6965855509042731 4.4021830186247826 2.5943732857704154 9.0944249927997607 3.6104245260357857 3.0517543926835042 4.9672796875238419 7.104905128479003 8.7400904297828657 11.148928284645079 2.6452478468418121 27.187354505062103 3.3825492337346077
leaf_count=18 25 29 23 33 30 23 21 21 33 15 11 19 22 25 17 27 20 26 23 18 22 23 22 38 20 26 34 18 89 29
internal_value=0 0.0565923 -0.0218374 -0.0169344 0.0684644 0.0472932 0.0214418 0.060991 -0.0394184 -0.0878565 -0.0697097 -0.0765244 0.0796295 -0.0855441 -0.0328223 0.0984488 0.106173 0.0953154 -0.132367 -0.118033 0.109529 -0.112126 -0.126981 -0.129264 0.116158 0.11943 0.117103 -0.121238 0.11398 -0.119218
internal_weight=0 167.049 21.9622 49.6296 145.087 92.919 61.7259 45.3252 40.8604 16.4007 29.637 14.7372 39.3661 26.0272 9.92353 31.1931 52.1681 32.7794 11.5109 16.1037 25.0829 7.10868 13.5093 8.24573 42.76 17.8345 21.9212 9.07955 34.2923 6.4343
internal_count=800 569 98 231 471 312 222 138 206 84 173 80 117 162 50 90 159 96 69 112 70 46 94 57 129 48 61 69 109 51
is_linear=0
shrinkage=0.1


Tree=16
num_leaves=31
num_cat=0
split_feature=5 12 15 2 16 15 10 3 12 10 7 11 14 3 2 10 6 16 0 8 16 7 5 6 15 11 7 5 14 4
split_gain=18.8315 22.1881 15.0137 14.4231 10.9791 9.72042 13.9855 8.19158 6.95706 5.73573 6.18414 5.64972 5.01491 4.0727 3.58116 9.12521 1.73994 1.64999 1.2667 1.188 0.643318 0.536817 1.03738 0.343291 0.333032 0.214392 0.0290243 0.0266002 0.0166614 0.0106023
threshold=0.39888081031748057 0.39641008364886965 0.43315721915359728 0.54460010542651316 0.5544919396797664 0.62450531662403719 0.51242949491929124 0.40912412647819124 0.26670616396467905 0.52233990144058218 0.52304083120821077 0.66040554768067194 0.48618554447204737 0.64622049297650974 0.48834665102847225 0.4329635506086878 0.62031604247742833 0.43025398354085137 0.49000979372101278 0.59256589474052668 0.64584952160175946 0.55291326643754746 0.2889645655011846 0.55789562110882629 0.51507597000149385 0.55469869844484143 0.49723588604588992 0.53429085851771652 0.70983943649988113 0.33128470180947361
decision_type=2 2 2 2 2 2 2 2 2 2 2 2 2 2 2 2 2 2 2 2 2 2 2 2 2 2 2 2 2 2
left_child=8 11 9 4 5 6 12 -6 -1 10 -3 13 -4 18 15 -10 24 -7 -2 -17 -9 26 -23 29 -5 -12 28 -26 -16 -20
right_child=1 2 3 16 7 17 -8 20 14 -11 25 -13 -14 -15 21 19 -18 -19 23 -21 -22 22 -24 -25 27 -27 -28 -29 -30 -31
leaf_value=-0.010942131577307973 -0.17608280501006779 0.017702021606569366 -0.15774061248180316 0.089941954934013704 0.042558595017158765 0.12133913383747053 0.077567965042429798 -0.15238902829486192 -0.017381303566851674 0.047936520224052807 -0.12666126234589592 0.0097363444986524154 -0.02167691213036135 -0.0026895544473295469 0.11868091806211763 0.11746769067615624 0.046719943365827334 0.059923408936026414 -0.12481911619521575 0.063635791742738132 -0.095226265823912623 0.1137577216386354 0.066970459741391208 -0.075047890164358935 0.11244041017701677 -0.16040914627890188 0.10847195640514402 0.11989870792767149 0.11216677771364421 -0.11693297302703305
leaf_weight=8.2834471836686117 4.0508050918579164 3.6557579711079589 4.9140219986438769 7.1439440846443203 4.4717129990458471 10.66141250729561 10.81985431909561 4.3666334599256516 10.204357251524927 3.9836381003260604 5.392315670847891 5.6898183226585379 6.0362218618392944 3.1285563781857482 11.466133207082754 12.716463267803194 5.334280550479888 7.4181343019008628 2.6872035041451436 6.0499260872602454 3.5852944776415825 10.094029925763609 8.9326518923044187 2.233295701444149 15.633462548255922 2.8919769451022148 6.1743396967649451 6.889223873615264 5.9711828231811515 4.6630954816937447
leaf_count=35 23 17 29 23 15 26 31 26 38 14 37 22 23 16 32 36 20 21 19 19 27 31 30 18 54 18 21 18 21 40
internal_value=0 0.0137263 0.0333272 0.0496197 0.0163548 0.041944 -0.00306445 -0.065724 0.0758216 -0.0559683 -0.0906347 -0.0763639 -0.0827367 -0.105589 0.0858581 0.0587282 0.0993003 0.0961399 -0.1292 0.100113 -0.126616 0.104292 0.091792 -0.109384 0.108755 -0.138442 0.114364 0.114722 0.11645 -0.119816
internal_weight=0 125.651 103.198 87.2742 52.2733 39.8496 21.7701 12.4236 79.8925 15.9237 11.9401 22.4528 10.9502 16.763 71.6091 28.9707 35.0009 18.0795 13.6344 18.7664 7.95193 42.6383 19.0267 9.58359 29.6666 8.28429 23.6117 22.5227 17.4373 7.3503
internal_count=800 537 399 313 198 130 83 68 263 86 72 138 52 116 228 93 115 47 100 55 53 135 61 77 95 55 74 72 53 59
is_linear=0
shrinkage=0.1


Tree=17
num_leaves=31
num_cat=0
split_feature=5 12 5 2 7 3 2 0 7 15 0 10 5 10 15 19 14 16 2 10 14 0 0 3 12 18 15 10 11 7
split_gain=16.8583 14.8345 12.7975 11.9184 11.4553 10.5052 10.2884 6.60478 5.71349 4.92808 4.78817 4.72449 4.4872 4.80957 6.98592 5.94495 6.07745 3.31297 2.74764 0.953311 0.8705 0.789385 0.7147 0.258547 0.126798 0.111697 0.0209153 0.00738935 0.00486201 0.00177133
threshold=0.61865492735233529 0.38689733032053669 0.27857671124706501 0.57397263277186583 0.46920112063475261 0.56055115613794981 0.50738657010579813 0.37713374658877868 0.38941058625242558 0.57044935768898142 0.35186906188986039 0.56914809796771804 0.31962830370723933 0.58430215844518674 0.64310602889944757 0.41363877502147156 0.48618554447204737 0.43025398354085137 0.46099178066400515 0.36352828302834206 0.5174885001749393 0.48539139804697456 0.59965804319973859 0.4629570356947888 0.54807184948956933 0.34326008686678633 0.4588322803243618 0.52561292308787266 0.55579034218462919 0.60824537768501541
decision_type=2 2 2 2 2 2 2 2 2 2 2 2 2 2 2 2 2 2 2 2 2 2 2 2 2 2 2 2 2 2
left_child=1 2 -1 5 -4 12 18 -6 -2 -8 -10 21 19 14 15 -14 -17 -16 -7 -3 -5 -9 24 -23 28 -25 -22 -21 -12 -28
right_child=8 3 4 20 7 6 9 11 10 -11 22 -13 13 -15 17 16 -18 -19 -20 27 26 23 -24 25 -26 -27 29 -29 -30 -31
leaf_value=0.087853315372729252 0.061417723436463012 0.068112740262526492 0.060704957571704667 0.076393755870573857 0.038906605312847418 -0.16122018425496445 -0.030235125989920838 -0.17336085494174824 -0.005675624162642905 0.10746813115708663 -0.11429753201953297 -0.029759906848053838 0.050893742358346927 0.10054902436307336 0.11611813529141345 -0.14566782169518433 0.00070116566106331272 0.027078157086063783 -0.05247533401616529 0.1171007361901793 0.11693371811352496 -0.14302700266597712 -0.062903051562326923 -0.11833462897826155 -0.14237956831051266 -0.088544079765435213 0.11055511617544903 0.11246300110916396 -0.12041851403733171 0.11247814459613073
leaf_weight=10.823554024100302 3.8773561567068127 6.4603523313999203 8.4531778320670146 8.3806951567530614 4.0969012007117298 3.8987196832895297 4.6627411395311338 4.075288966298106 6.5648593008518246 5.8715605735778809 2.5561634898185712 6.1139330789446822 8.3146860376000422 11.361950121819971 8.7830515801906603 4.8293944075703603 6.8752504959702492 7.9713097959756842 5.7507322579622269 6.5612274855375272 7.4788265228271475 2.9622824192047101 2.1694207042455664 3.0390042290091515 3.3410708159208298 2.1482901722192764 21.752588063478473 7.2116331458091736 2.6358500942587852 6.142481952905654
leaf_count=29 12 23 28 28 15 23 26 23 26 19 25 33 27 34 26 32 24 27 27 20 22 18 17 26 19 19 85 25 21 21
internal_value=0 0.0462806 -0.00571864 0.0626744 -0.0385065 0.041577 -0.0218144 -0.0758868 -0.0482793 0.0465173 -0.0729116 -0.101532 0.0602913 0.0436818 0.0261116 -0.0137618 -0.0596914 0.0737551 -0.0964121 0.0998061 0.105372 -0.137426 -0.114154 -0.119457 -0.127184 -0.105997 0.112238 0.114672 -0.117405 0.110979
internal_weight=0 174.02 41.7124 132.307 30.8889 88.5526 20.1838 22.4357 21.1447 10.5343 17.2674 18.3388 68.3689 48.1356 36.7737 20.0193 11.7046 16.7544 9.64945 20.2332 43.7546 12.2249 10.7025 8.14958 8.53308 5.18729 35.3739 13.7729 5.19201 27.8951
internal_count=800 680 191 489 162 333 95 134 120 45 108 119 238 170 136 83 56 53 50 68 156 86 82 63 65 45 128 45 46 106
is_linear=0
shrinkage=0.1


Tree=18
num_leaves=31
num_cat=0
split_feature=5 12 15 2 16 14 15 12 12 6 0 10 2 2 10 16 5 19 16 3 8 17 7 5 0 6 0 7 14 11
split_gain=14.8209 17.0017 12.4221 11.8614 8.47999 7.82822 7.74377 11.5997 6.08267 4.95907 7.50397 4.63151 5.43706 3.50614 8.1371 10.3186 1.91203 1.86536 1.5741 1.28604 1.22362 0.968927 0.527191 0.759214 0.297761 0.290057 0.1659 0.0345241 0.0110835 0.00953584
threshold=0.39888081031748057 0.39641008364886965 0.43315721915359728 0.54460010542651316 0.5544919396797664 0.39240156452595659 0.62450531662403719 0.55876405216602498 0.26670616396467905 0.50903126855210845 0.39107587822355028 0.52233990144058218 0.6425092480680451 0.49374935933064462 0.43045940975218083 0.44163740075056596 0.59068556042982612 0.60426064529712831 0.43025398354085137 0.64622049297650974 0.59256589474052668 0.5005388135728458 0.55291326643754746 0.2889645655011846 0.49000979372101278 0.59592830795564666 0.38614251255118731 0.49849071383964932 0.70983943649988113 0.58168691776725523
decision_type=2 2 2 2 2 2 2 2 2 2 2 2 2 2 2 2 2 2 2 2 2 2 2 2 2 2 2 2 2 2
left_child=8 9 11 4 6 -6 7 17 -1 19 -11 12 26 14 15 -10 25 -4 -8 24 -16 -7 27 -24 -2 -5 -3 28 -15 -26
right_child=1 2 3 16 5 21 18 -9 13 10 -12 -13 -14 22 20 -17 -18 -19 -20 -21 -22 -23 23 -25 29 -27 -28 -29 -30 -31
leaf_value=-0.01225807603742474 -0.15546038093210998 -0.1484728888797183 -0.1322851847920091 0.11159521214938313 0.068112987141977985 -0.072971823813000755 0.11741925710721818 0.061336938717963835 -0.11897698478092392 0.096919945401499591 -0.089687259454598073 0.042070841043384419 0.029580398244167767 0.11562825443550735 0.11479448711222413 0.080275249509460911 0.039642796306060137 -0.037528184378460061 0.054425903706406792 -0.045764296258426818 0.057390459805176187 -0.14258513276226489 0.10906750377047987 0.065359312395205385 -0.11460944749883031 0.08528256038048411 -0.11882477628846422 0.10418861921118459 0.10990317540675737 -0.12288018140414479
leaf_weight=7.9908670336008063 2.9696766585111636 3.0677628815174085 4.8598344027996081 19.920944452285774 3.3831888213753691 3.4959917142987234 9.1753745526075381 11.861805811524389 5.0442983806133288 3.6234724223613721 5.3170901611447334 3.691528044641017 2.9043033570051193 10.255353942513468 11.394151180982591 5.3615263924002647 5.23342141509056 3.6287024393677711 6.9879672378301612 2.293797828257083 5.5085369050502768 4.6707106754183769 7.89575071632862 8.0013337880372983 4.4337049052119255 5.3051071017980567 4.9050118178129196 5.0272127091884604 5.0450426638126364 2.0333393812179565
leaf_count=35 19 20 26 76 11 25 26 39 23 9 37 14 10 33 37 17 18 18 21 14 19 32 29 29 43 21 42 20 21 16
internal_value=0 0.0118765 0.0300933 0.0458278 0.0148876 -0.0597966 0.0385115 -0.00253047 0.0699708 -0.0701623 -0.0140582 -0.0547136 -0.0875608 0.0803131 0.0532569 -0.0163137 0.0946498 -0.0917782 0.0901851 -0.112923 0.0960867 -0.112785 0.10071 0.0870683 -0.129247 0.106062 -0.130233 0.111378 0.113741 -0.11721
internal_weight=0 113.763 93.0917 78.523 48.0636 11.5499 36.5137 20.3503 71.5241 20.6711 8.94056 14.5686 10.8771 63.5332 27.3085 10.4058 30.4595 8.48854 16.1633 11.7305 16.9027 8.1667 36.2247 15.8971 9.43672 25.2261 7.97277 20.3276 15.3004 6.46704
internal_count=800 537 399 313 198 68 130 83 263 138 46 86 72 228 96 40 115 44 47 92 56 57 132 58 78 97 62 74 54 59
is_linear=0
shrinkage=0.1


Tree=19
num_leaves=31
num_cat=0
split_feature=5 12 0 2 5 3 2 3 15 5 12 7 0 10 15 19 6 0 18 12 8 10 11 12 5 6 5 18 10 6
split_gain=13.2307 11.9718 11.5334 11.1741 9.05434 9.02412 7.52893 7.47758 6.19182 4.88433 4.90588 4.68211 3.97688 3.22759 3.01828 12.6716 3.28064 2.71006 1.51381 1.18233 2.4962 1.04294 0.569812 0.124582 0.0816077 0.0657944 0.0098908 0.00456925 0.00306069 0.00272373
threshold=0.61865492735233529 0.36272237872284413 0.37905965491646837 0.57397263277186583 0.25493693281576546 0.56055115613794981 0.50738657010579813 0.62594542136757869 0.55234433507296943 0.31962830370723933 0.43320334061132504 0.45839123354460565 0.35186906188986039 0.6187971120267195 0.53672812402412273 0.37969428540338834 0.359746771873243 0.3243114054014824 0.37610652927108018 0.59987938820089182 0.53796705337677608 0.35537782191670109 0.65665696203314439 0.54807184948956933 0.44585989756793698 0.66274376834144 0.51625816170639272 0.37433954590762591 0.52809825704799718 0.46569364405214519
decision_type=2 2 2 2 2 2 2 2 2 2 2 2 2 2 2 2 2 2 2 2 2 2 2 2 2 2 2 2 2 2
left_child=1 2 -1 5 -4 9 17 13 -8 21 -11 -2 -13 22 15 -12 -16 -7 -5 20 -18 -3 24 28 -6 26 -20 -23 -14 -26
right_child=11 3 4 18 7 6 8 -9 -10 10 14 12 23 -15 16 -17 19 -19 25 -21 -22 27 -24 -25 29 -27 -28 -29 -30 -31
leaf_value=0.073778385535319208 0.028093999981294651 0.061541220959095144 0.077646476340102188 0.055423006227739248 -0.13248666655767455 -0.16380333116950296 -0.057515728121697307 0.056772242749288271 0.10396531689378026 -0.048798598946426242 0.088032737938400496 -0.013859309660367834 -0.11199868932960691 -0.010854311518054598 0.0010404017201819911 -0.11601417297943406 0.022344674933636136 -0.04990792023394474 0.10952536531360012 0.11556301671938092 0.11225901562190728 0.11048690516117331 -0.176128309466455 -0.14012158235115438 -0.11583907078569261 0.097679095094346774 0.113863146457655 0.11430371391310389 -0.11710336350051882 -0.11084232735821607
leaf_weight=10.803581714630125 6.0639187395572689 5.9568973779678371 4.3298792243003872 6.3158110380172721 4.8484708592295664 3.2051831409335154 4.0786224678158742 3.1368152871727935 5.6832011789083481 5.9394204020500174 7.8471015244722349 5.6567759811878187 2.8659944869577885 2.5502466782927504 5.7288210093975094 4.971771813929081 6.2340762019157427 5.999769639223814 22.012193143367771 8.3671193122863752 6.1174236834049225 7.934654772281645 2.5934085994958869 2.9587424993515015 3.1323528960347176 4.5946759283542624 6.9055319875478736 5.1867758333683014 1.9902521222829817 1.6738763228058813
leaf_count=33 29 23 12 27 32 20 27 11 21 27 24 23 33 14 21 36 23 32 96 26 20 32 14 17 29 18 24 18 18 20
internal_value=0 0.0424164 -0.0110026 0.056769 -0.0521406 0.0359281 -0.0246845 -0.0834736 0.0364963 0.0538117 0.0359046 -0.0448756 -0.0777207 -0.113202 0.0487168 0.00889359 0.0680188 -0.0895665 0.100331 0.0865388 0.0668773 0.0962421 -0.134512 -0.123946 -0.123333 0.108795 0.110561 0.111996 -0.114091 -0.114099
internal_weight=0 156.148 33.0686 123.079 22.265 83.2508 18.9668 17.9352 9.76182 64.2841 45.2057 19.5357 13.4718 14.7984 39.2663 12.8189 26.4474 9.20495 39.8282 20.7186 12.3515 19.0783 12.2481 7.81499 9.6547 33.5124 28.9177 13.1214 4.85625 4.80623
internal_count=800 680 165 515 132 350 100 120 48 250 177 120 91 109 150 60 90 52 165 69 43 73 95 68 81 138 120 50 51 49
is_linear=0
shrinkage=0.1


Tree=20
num_leaves=31
num_cat=0
split_feature=5 12 0 3 16 2 3 15 18 18 15 8 18 17 0 0 17 15 7 3 5 9 11 12 9 14 8 0 15 5
split_gain=12.0784 8.97564 11.0206 8.54047 7.85176 7.38056 8.20754 15.987 5.9383 5.47482 5.25911 4.45306 6.02203 5.1342 4.33317 3.46054 2.75509 2.09453 1.45274 1.12651 0.840858 0.628898 0.503011 0.259302 0.248883 0.108439 0.0423539 0.0113964 0.0092159 0.00445205
threshold=0.5437382329870174 0.36558580766746834 0.37713374658877868 0.36451965523013341 0.39874270218953872 0.55605402006694449 0.39484250134268739 0.53091570621592299 0.47300658198377216 0.43764025604251183 0.68842603025279148 0.45020808461051992 0.7367056304347025 0.56103064263708824 0.50407636698634106 0.41231703527669711 0.55029636204327048 0.6639813524728061 0.62644650422659287 0.42137879507881248 0.57876635019373313 0.41391842329027584 0.61501183798685732 0.54553722282043982 0.49542791600527653 0.5655363763863942 0.70898592493970958 0.49984737656433004 0.45366659503097617 0.36757566370926043
decision_type=2 2 2 2 2 2 2 2 2 2 2 2 2 2 2 2 2 2 2 2 2 2 2 2 2 2 2 2 2 2
left_child=1 2 -1 -4 8 6 17 15 -2 19 14 13 20 -6 16 -8 -9 25 26 -5 -13 -17 24 27 -21 29 28 -22 -7 -3
right_child=4 5 3 9 11 18 7 10 -10 -11 -12 12 -14 -15 -16 21 -18 -19 -20 22 23 -23 -24 -25 -26 -27 -28 -29 -30 -31
leaf_value=0.086887031892072475 -0.044605320960130285 0.11048143467162437 0.10022580758796913 -0.056910656729375508 -0.067604186558695725 0.11272828441510044 -0.02260026221327352 0.031616910011697356 0.087779755676636845 0.019324715344299435 0.11358998866873521 -0.066514759532988688 0.046285044837738237 0.071269608280669125 0.090216320130146216 -0.11390991474474753 -0.06129861265257263 0.032969007374520791 0.055375625540730701 -0.12127443633824092 -0.12155000636397804 -0.17906656127730666 -0.15830496934858465 -0.15023439703927621 -0.077417191527210064 0.094638622344041148 0.098052928796784525 -0.11235881574502629 0.10805798966809373 0.11441482230084439
leaf_weight=9.7697326540946978 5.2243547551333895 5.1439564079046303 3.5183310136199024 3.4235008507967022 5.5480375885963458 5.415830582380301 4.3848567306995374 6.945799529552465 9.6413107439875585 4.8637428395450106 9.389866113662718 2.6200370378792277 2.8003831505775443 5.1179045550525188 6.2915761768817893 3.9844386279582977 5.9036590754985809 4.8962962031364432 6.5636859685182563 4.2504355013370496 2.4545790851116163 2.3580711185932159 2.9327461272478104 3.9151483774185181 1.8602382913231847 4.6605036407709113 4.0527074187993994 2.9951761849224567 19.219568610191345 6.531177282333374
leaf_count=28 33 21 10 17 38 20 26 24 30 22 34 18 12 23 21 31 24 20 27 37 21 16 17 22 18 20 20 34 95 21
internal_value=0 0.046374 -0.000754586 -0.041823 -0.0164887 0.0614459 0.0402505 0.0131615 0.0412547 -0.0706606 0.0522912 -0.0502157 -0.0857427 -0.00096752 0.0222204 -0.0909093 -0.0110729 0.0903387 0.0978161 -0.105767 -0.116592 -0.138134 -0.124262 -0.130602 -0.107923 0.107534 0.107526 -0.116499 0.109085 0.112682
internal_weight=0 126.361 30.6187 20.849 40.3169 95.742 60.4902 39.2583 14.8657 17.3307 28.5309 25.4513 14.7853 10.6659 19.141 10.7274 12.8495 21.2319 35.2518 12.4669 11.9849 6.34251 9.04342 9.3649 6.11067 16.3356 28.6881 5.44976 24.6354 11.6751
internal_count=800 569 149 121 231 420 258 176 63 111 103 168 107 61 69 73 48 82 162 89 95 47 72 77 55 62 135 55 115 42
is_linear=0
shrinkage=0.1


Tree=21
num_leaves=31
num_cat=0
split_feature=5 12 7 2 15 10 12 12 5 0 11 3 5 0 19 2 16 2 18 3 2 16 1 6 0 7 15 14 5 15
split_gain=11.3265 12.4534 9.8061 7.65015 6.01441 15.3403 5.00506 4.49788 5.76266 4.48602 4.35103 4.20137 3.87618 3.23808 3.41979 3.07743 2.79984 2.59148 3.7082 2.17982 1.83831 1.39026 0.82318 1.14663 0.472726 0.372585 0.317983 0.190582 0.00844718 0.00372431
threshold=0.39888081031748057 0.39641008364886965 0.744875368215005 0.57244469664292652 0.66541153294816768 0.51242949491929124 0.55876405216602498 0.35120782935195788 0.25493693281576546 0.45123094754829723 0.70090068029138608 0.42610827295645409 0.60601866218605505 0.4818427718877763 0.60426064529712831 0.65917556535925459 0.43025398354085137 0.5029346472670263 0.44276225715720302 0.42057985472744291 0.5095287042500346 0.46063371304022321 0.50516548511565518 0.55789562110882629 0.47581928628423303 0.58443501629385974 0.53995249602784379 0.57168119827056463 0.53145525824015338 0.49736356293887446
decision_type=2 2 2 2 2 2 2 2 2 2 2 2 2 2 2 2 2 2 2 2 2 2 2 2 2 2 2 2 2 2
left_child=7 10 3 4 5 11 -7 8 -1 -10 15 -3 25 20 -15 22 -6 18 19 -9 26 -4 24 -24 -2 28 -13 -19 -5 -29
right_child=1 2 21 12 16 6 -8 17 9 -11 -12 13 -14 14 -16 -17 -18 27 -20 -21 -22 -23 23 -25 -26 -27 -28 29 -30 -31
leaf_value=0.090757205199445912 -0.16759266698108857 0.043374243920276723 -0.14394068268707305 0.10746199355951201 0.11346017617905986 0.0014753570339566813 0.11331835022953365 0.10969830431406372 0.045202509083184808 -0.091039261692627216 0.026859284892513786 -0.12443820235817481 -0.00064282969282199978 -0.10319921213577617 0.043926363049371975 0.017052589809399537 0.024478036036802084 0.086215460840021116 -0.0056247582657935127 0.024699322071989323 -0.055890044047931714 -0.048470396970652328 -0.11854164740710665 -0.023688013166007878 -0.11252571515699253 0.075791151833382239 -0.16609805285682561 0.11125712939942699 0.11274153293574739 0.10799976473032913
leaf_weight=6.6925895959138897 2.8525932766497153 2.9097842350602177 3.057237807661294 10.864816635847097 7.009207680821417 7.1930345222353962 9.0170843750238401 10.052905678749086 4.3953963071107847 5.368859589099884 3.8890643157064906 3.2811755985021609 4.5956820622086516 3.1834592483937731 3.1363963335752487 2.1604223251342765 7.1364400312304497 4.6844238042831448 6.760976791381835 4.3109449818730345 3.0869872942566872 3.0440724641084671 3.5680559873580933 1.9825617522001264 3.4375335536897182 4.3770898878574362 4.1488719657063484 4.7947427630424526 4.2028430849313727 13.10027155280113
leaf_count=19 20 10 28 58 25 35 27 44 15 31 16 28 20 28 16 11 30 22 26 20 18 17 37 14 40 19 24 20 16 66
internal_value=0 0.0087321 0.0255524 0.0355805 0.0133299 -0.00840152 0.0636894 0.06384 0.0192811 -0.0297098 -0.0667131 -0.0675813 0.0819528 -0.0867568 -0.0301842 -0.0927044 0.0685689 0.0806187 0.0554435 0.084188 -0.120752 -0.0963085 -0.11273 -0.084662 -0.137499 0.101474 -0.147701 0.104172 0.108935 0.108873
internal_weight=0 98.1344 80.2442 74.1429 50.1024 35.9568 16.2101 60.1611 16.4568 9.76426 17.8902 19.7467 24.0404 16.8369 6.31986 14.0012 14.1456 43.7043 21.1248 14.3639 10.517 6.10131 11.8407 5.55062 6.29013 19.4447 7.43005 22.5794 15.0677 17.895
internal_count=800 537 399 354 241 186 62 263 65 46 138 124 113 114 44 122 55 198 90 64 70 45 111 51 60 93 52 108 74 86
is_linear=0
shrinkage=0.1


Tree=22
num_leaves=31
num_cat=0
split_feature=15 16 7 12 0 3 3 2 3 15 5 18 16 16 16 10 15 3 7 16 18 10 5 15 15 5 19 14 2 7
split_gain=10.0408 8.08874 8.06147 7.68713 8.15676 8.25046 8.31059 7.78974 11.008 6.24938 5.13702 3.74589 3.59409 3.5909 3.58409 2.7353 6.01843 0.99104 1.32744 0.824447 0.716754 0.370647 0.216713 0.12856 0.103051 0.045364 0.00698166 0.00431237 0.00179412 0.000471042
threshold=0.40452204578998691 0.7150028428570695 0.5025895621312042 0.38689733032053669 0.41529828629599047 0.64622049297650974 0.4117838423620267 0.50474537978617984 0.50513319417243097 0.54481495003060088 0.60601866218605505 0.34455610414398857 0.48365025176420778 0.47371184692755591 0.5651054905413776 0.48011717550762428 0.68879236653490838 0.48921782531699515 0.63946241231412826 0.43025398354085137 0.43622146905062198 0.37567386680457188 0.44585989756793698 0.48248560317319028 0.51507597000149385 0.42496211043426907 0.37322600400914613 0.56675263182587254 0.55605402006694449 0.53160633775744615
decision_type=2 2 2 2 2 2 2 2 2 2 2 2 2 2 2 2 2 2 2 2 2 2 2 2 2 2 2 2 2 2
left_child=2 3 -1 4 11 6 -6 8 14 24 17 -2 -11 21 15 16 -5 18 -9 25 22 -4 -8 -19 -10 -17 -24 -25 -29 -30
right_child=1 -3 13 7 5 -7 20 10 9 12 -12 -13 -14 -15 -16 19 -18 23 -20 -21 -22 -23 26 27 -26 -27 -28 28 29 -31
leaf_value=0.066274844629588284 0.11885766422313077 -0.097200985356660566 -0.12495574703819629 -0.032927137835447588 0.043352482713527984 0.1099795643682256 -0.14319692238780066 0.029671440312373468 -0.11645097426716607 0.049615316719217553 -0.0015394605993307314 0.010576891927164871 -0.060957480309055539 -0.002487735108333269 -0.0067194701386952453 0.10894665360723671 0.11496621211640796 0.090807049873616388 0.10593185963225987 0.073420389384285759 -0.064185405048723609 -0.17295849939554431 -0.11717991283111073 0.10988227362268016 -0.14473848551940993 0.12200559685927884 -0.10916443823247993 0.10875945473228027 0.10606493333850076 0.1072634250209496
leaf_weight=3.8485345318913451 5.784157410264017 4.3968933485448352 4.1815899871289712 6.028100401163103 4.4699353724718121 2.9379226677119723 5.0383155643939954 4.5819830745458585 2.9824311137199429 6.8487253040075284 6.1191543899476519 7.1369370222091675 5.1502099186182022 2.4632177203893661 6.7362262010574332 5.2695057690143603 5.0624077916145325 5.288920626044276 4.5482944548130035 8.2509911209344846 2.0795384161174288 2.6140852905809879 1.9863875359296796 7.6694407910108593 2.2665847092866898 5.3718212991952896 2.3991678357124329 4.7080531418323543 8.9290093034505826 5.182878002524375
leaf_count=18 18 38 39 29 19 11 35 23 30 23 28 30 25 16 37 25 18 25 18 34 17 20 19 35 14 16 34 22 56 28
internal_value=0 0.036242 -0.0553662 0.0406593 -0.00219096 -0.0440331 -0.0723601 0.0541652 0.0282399 -0.0376573 0.0839161 0.059049 0.00215501 -0.105927 0.0591936 0.0740022 0.0345807 0.0966986 0.067661 0.0971442 -0.117323 -0.143421 -0.129049 0.105041 -0.128666 0.115539 -0.112795 0.107884 0.107069 0.106505
internal_weight=0 137.224 13.1074 132.827 31.8324 18.9113 15.9733 100.995 53.967 17.248 47.0277 12.9211 11.9989 9.25889 36.7191 29.9828 11.0905 40.9086 9.13028 18.8923 11.5034 6.79568 9.42387 31.7783 5.24902 10.6413 4.38556 26.4894 18.8199 14.1119
internal_count=800 707 93 669 183 135 124 486 251 92 235 48 48 75 159 122 47 207 41 75 105 59 88 166 44 41 53 141 106 84
is_linear=0
shrinkage=0.1


Tree=23
num_leaves=31
num_cat=0
split_feature=5 18 16 3 15 2 10 5 12 2 10 4 17 2 14 10 9 3 2 0 14 15 14 11 14 12 17 12 1 11
split_gain=9.58 10.531 12.0388 8.87241 7.89356 8.84563 11.4518 4.03528 3.62919 3.34024 9.60021 2.96546 4.45318 2.73948 2.39096 2.31053 1.76613 1.25048 1.17281 1.16048 1.02939 0.624808 0.460933 0.386103 0.326551 0.279655 0.204502 0.035918 0.0301661 0.025545
threshold=0.39888081031748057 0.42486099244186187 0.63103432321712161 0.39484250134268739 0.62849540873372789 0.5513289244600722 0.51242949491929124 0.60601866218605505 0.26670616396467905 0.44457162682845808 0.49901715730011909 0.48469244864547373 0.44068288755153284 0.42070846046925292 0.65143107815018764 0.40373263110760432 0.32995461530670894 0.47783525091800505 0.46771399893330362 0.48599117244489443 0.50967963560992924 0.50706281146248366 0.54535522441046258 0.64160092175594363 0.6121007232304515 0.54021811084757532 0.56643888865905712 0.51054341962181538 0.52139716674145575 0.45354092139097885
decision_type=2 2 2 2 2 2 2 2 2 2 2 2 2 2 2 2 2 2 2 2 2 2 2 2 2 2 2 2 2 2
left_child=8 3 4 -2 5 6 13 29 -1 10 -10 12 -5 -3 19 -4 -15 -13 -6 -14 -11 -21 -12 25 -19 28 -17 -20 -22 -7
right_child=1 2 15 11 18 7 -8 -9 9 20 22 17 14 16 -16 26 -18 24 27 21 23 -23 -24 -25 -26 -27 -28 -29 -30 -31
leaf_value=-0.0099193388324669285 0.051803799334454885 -0.15447508341279048 -0.015801654110322427 0.061943310252443054 0.062698144239971609 0.099596534812880388 0.062130973746842393 -0.0076689530572718366 -0.065112118258160198 0.049874510108740576 0.11129394499964057 -0.17927876487887254 -0.17071857136762153 0.0066714244634152355 0.0084101869333591487 -0.15608840926647116 -0.088764773975807065 -0.11435402235520216 0.11963811129271713 -0.11446596452091609 0.11190898618487249 -0.03216665042659006 0.066924444561629479 0.073021321535731515 -0.058732220409249025 0.077429843491260142 -0.11356488609667091 0.10889202387562724 0.10315591417377573 0.10945507784928639
leaf_weight=6.4845447316765776 6.7105894088745144 4.0437385663390186 2.4001800343394271 2.7522173002362278 6.9703481420874622 4.1970756649970991 8.8128444850444776 4.3507835045456877 6.1672594100236919 5.5604599788785007 6.0085012316703779 2.9973157942295057 2.3760140091180784 3.0348658487200719 2.0650786533951759 2.515619870275259 5.3704270906746387 3.5197060965001583 5.815317824482916 2.3294883742928509 10.894256591796884 1.5272700637578962 3.836252748966217 5.2096864432096472 1.5076199285686014 3.4240089803934088 2.0546331331133842 6.6869237124919891 6.1656241565942755 7.031970277428627
leaf_count=35 29 25 13 16 28 25 35 21 26 27 25 20 16 18 17 26 35 42 20 26 49 16 20 27 18 20 22 34 34 35
internal_value=0 0.00677499 0.0287236 -0.0470933 0.0440684 0.0168496 -0.0250949 0.0740915 0.060234 0.0698585 0.0327183 -0.0818858 -0.0482852 -0.0868433 -0.0848456 -0.095248 -0.054306 -0.128154 0.0955658 -0.115744 0.0888861 -0.0818756 0.0940043 0.0973288 -0.0976739 0.103511 -0.136971 0.11389 0.108746 0.10577
internal_weight=0 89.07 63.2847 25.7853 56.3143 36.8417 21.2619 15.5798 53.7506 47.266 16.012 19.0747 11.0501 12.449 8.29785 6.97043 8.40529 8.02464 19.4726 6.23277 31.254 3.85676 9.84475 25.6936 5.02733 20.4839 4.57025 12.5022 17.0599 11.229
internal_count=800 537 337 200 276 194 113 81 263 228 71 171 91 78 75 61 53 80 82 58 157 42 45 130 60 103 48 54 83 60
is_linear=0
shrinkage=0.1


Tree=24
num_leaves=31
num_cat=0
split_feature=15 3 7 12 0 2 3 3 5 5 16 8 5 18 10 15 15 18 14 9 12 4 5 2 5 7 14 18 0 2
split_gain=8.36977 7.52314 10.0894 6.26029 8.16019 8.11521 8.21764 6.70124 9.0468 3.83322 4.14421 5.03446 3.15653 2.77123 2.64127 3.02403 2.27731 2.15745 1.46082 0.920664 1.14615 0.443236 0.356808 0.342681 0.152036 0.0449354 0.0443337 0.0136149 0.00672057 0.000814952
threshold=0.43315721915359728 0.39484250134268739 0.5025895621312042 0.38689733032053669 0.42543393489167902 0.50474537978617984 0.56055115613794981 0.63233040994699852 0.21133436134001515 0.53848986933198117 0.4315766775855287 0.40510084427827187 0.66342103862763646 0.3778294879656009 0.58430215844518674 0.55410305855786202 0.58635943578156335 0.46003876345251382 0.50967963560992924 0.32553015493472998 0.3042911736693828 0.60388398190361514 0.45245317976041516 0.53008183153148158 0.44585989756793698 0.67482224667808632 0.7944452347882478 0.67829362464663712 0.5366891239476258 0.56996096181543621
decision_type=2 2 2 2 2 2 2 2 2 2 2 2 2 2 2 2 2 2 2 2 2 2 2 2 2 2 2 2 2 2
left_child=1 -1 -3 4 13 6 9 8 -6 14 -11 -12 18 -2 15 -5 -8 -17 -7 20 -10 22 -4 -20 -21 -24 27 29 -26 -25
right_child=3 2 21 5 7 12 16 -9 19 10 11 -13 -14 -15 -16 17 -18 -19 23 24 -22 -23 25 26 28 -27 -28 -29 -30 -31
leaf_value=0.1140037736065535 0.11212344130234098 0.053184969095672323 -0.17255270998307581 -0.020128695072571839 0.10069569732814437 0.052863972880960487 -0.12881827251253392 0.097328623490317123 -0.11555337415782126 0.070244780089275635 0.037896934193697482 -0.1402224700397153 -0.013233656033661424 0.01539148284529028 0.10900080593307322 0.10056609923576183 -0.024797806241847877 0.02846767903906966 0.07457200777133241 -0.14008364411388838 -0.010074811679549149 -0.082964938556061102 -0.13155558388391236 0.10732309374351888 -0.11689836101529497 -0.11410233352067889 0.095785009126665266 0.11314931418342243 -0.10840015739914982 0.10567719861592949
leaf_weight=2.6936163455247906 5.3885692879557627 4.6739156171679488 1.9727344363927821 5.9914733916521135 2.4739535301923778 8.2383218109607679 3.5410161428153497 2.691136058419942 2.410137776285409 3.7731136567890626 2.8366995677351952 3.6014610528945923 3.2238108441233626 6.575826495885849 7.57751840353012 7.9071127325296429 5.1886333115398884 8.735739201307295 4.2796006798744228 4.5776399634778482 1.7992439456284044 1.9952761754393575 3.1796481721103191 3.9100447595119574 1.9755437448620798 2.7518086843192577 4.1021085381507865 3.2206007465720168 1.759283762425184 13.045129626989363
leaf_count=11 19 27 16 31 7 36 29 12 27 15 15 33 15 29 37 35 24 32 22 34 15 22 25 22 20 32 27 15 27 89
internal_value=0 -0.0395299 -0.0679077 0.0349795 -0.00482561 0.0482154 0.0209948 -0.0479723 -0.0740479 0.0399961 -0.0129721 -0.0617418 0.0816481 0.058958 0.0578988 0.0407908 -0.0669917 0.062722 0.089961 -0.108572 -0.070468 -0.12508 -0.135711 0.100663 -0.127868 -0.123458 0.105262 0.107189 -0.112895 0.106057
internal_weight=0 17.267 14.5734 118.824 29.6513 89.1724 49.1528 17.6869 14.9958 40.4231 10.2113 6.43816 40.0196 11.9644 30.2118 22.6343 8.72965 16.6429 36.7958 12.5218 4.20938 9.89947 7.90419 28.5575 8.31247 5.93146 24.2779 20.1758 3.73483 16.9552
internal_count=800 133 122 667 190 477 251 142 130 198 63 48 226 48 135 98 53 67 211 123 42 95 73 175 81 57 153 126 47 111
is_linear=0
shrinkage=0.1


Tree=25
num_leaves=31
num_cat=0
split_feature=5 2 15 16 3 14 10 7 19 7 1 19 19 8 2 14 0 10 15 14 3 16 16 17 9 7 5 3 7 13
split_gain=7.79671 10.3754 9.18792 10.0188 8.67946 7.85445 5.15812 4.4203 5.99 2.79367 2.75769 3.10845 2.48181 2.35204 2.16285 3.80423 3.45361 2.49408 1.79574 1.61276 4.00231 0.833942 0.664594 0.551276 0.539727 0.381096 0.351006 0.152 0.0397153 0.0274952
threshold=0.33083852666671726 0.64649105187973355 0.44992939918927194 0.49128294265074385 0.39484250134268739 0.31281734221119589 0.27434916488176481 0.45087197556799041 0.6650275431961048 0.59218053348375854 0.59469623101878932 0.44500877977740694 0.5690647303827342 0.68120206978953957 0.30380591461040068 0.48618554447204737 0.35623054986527009 0.53493205784148379 0.55410305855786202 0.57168119827056463 0.39043810703519022 0.55240494729104783 0.41944070987292242 0.5169182169562353 0.42488249870542688 0.55439425055680747 0.45041572104356703 0.69166317675047662 0.63233783681203071 0.47844434497562488
decision_type=2 2 2 2 2 2 2 2 2 2 2 2 2 2 2 2 2 2 2 2 2 2 2 2 2 2 2 2 2 2
left_child=13 2 4 7 -2 -5 -7 22 14 27 12 -12 21 19 -9 16 -16 -18 -17 20 -1 -8 -4 -20 -23 -6 -27 -3 -28 -21
right_child=1 9 3 5 25 6 10 8 -10 -11 11 -13 -14 -15 15 18 17 -19 23 29 -22 24 -24 -25 -26 26 28 -29 -30 -31
leaf_value=0.11311546516075062 0.11491403456739786 0.08635394422265226 0.1088088892381126 0.082685251952409458 -0.082350600196921156 0.077343219112396833 -0.080169637924492387 0.10853156111491076 -0.079459729451215641 0.0051249856616395889 0.069965184574350817 -0.085048892992594438 -0.049603976878770994 0.0038311318512118837 0.051562399447932131 0.0066804713008808249 -0.12743727707459238 0.0009748054030414504 0.060059261350728511 0.10040036496589583 -0.0067116148861042354 -0.12652909871124085 0.056764336184094932 0.1085263293173398 -0.18334128374873226 -0.16819374448961263 -0.12811335140057512 0.10943164879378603 -0.11195281160133719 0.11002648462205007
leaf_weight=5.7288736924529129 1.8582789003849018 4.0713540539145496 7.9583144560456258 4.4693191051483181 2.1351546943187705 2.3519283868372467 2.1423272602260131 3.8498868346214321 5.0493358224630347 3.7567639201879492 2.2991388849914065 2.957803837954998 5.5989142358303061 4.4821255281567565 4.1999538280069846 4.0222471468150607 3.1825647875666618 2.8823467567563057 4.3107277154922468 4.5809224992990485 5.4288345947861671 3.7667585536837578 3.5472607910633087 5.1510947123169899 3.0072455145418644 1.843466505408285 2.5758792571723461 9.5453213229775411 3.7123607844114304 8.4235100448131544
leaf_count=27 7 28 40 16 23 11 15 18 31 23 13 30 38 24 16 25 27 16 22 30 28 39 17 25 27 15 25 54 47 43
internal_value=0 0.0112049 -0.00352522 0.0102593 -0.0839547 -0.0382305 -0.0626568 0.0394644 0.0206813 0.0814687 -0.07931 -0.017253 -0.101785 0.0703629 0.0390026 0.0277314 -0.0181403 -0.0664095 0.0626516 0.0827047 0.054813 -0.134552 0.0927631 0.0864451 -0.15175 -0.119949 -0.129822 0.102531 -0.118573 0.106636
internal_weight=0 100.246 82.8723 70.7472 12.1251 26.5934 22.1241 44.1537 32.6482 17.3734 19.7722 5.25694 14.5152 28.6443 27.5988 23.7489 10.2649 6.06491 13.4841 24.1621 11.1577 8.91633 11.5056 9.46182 6.774 10.2669 8.13171 13.6167 6.28824 13.0044
internal_count=800 648 543 426 117 189 173 237 180 105 162 43 119 152 149 131 59 43 72 128 55 81 57 47 66 110 87 82 72 73
is_linear=0
shrinkage=0.1


Tree=26
num_leaves=31
num_cat=0
split_feature=5 2 12 15 14 16 19 8 15 10 2 0 7 7 10 5 8 14 3 7 3 19 4 0 11 18 12 10 5 15
split_gain=6.7835 9.05122 8.30003 7.38386 5.73184 5.24404 4.83148 3.88592 3.71949 5.02482 6.61907 3.15407 3.07967 2.74469 2.4982 5.51881 2.19223 1.61492 3.70994 1.49855 1.2394 0.498518 0.48426 0.457773 0.404565 0.217619 0.0510549 0.0315048 0.0102592 0.00318876
threshold=0.33083852666671726 0.64649105187973355 0.4115023442813715 0.44992939918927194 0.27068622053034569 0.5544919396797664 0.20085825193673418 0.51145572405002393 0.6639813524728061 0.54138149703826854 0.49965849760045727 0.43366930727266279 0.61796235407400968 0.56056797082988397 0.50381374302435777 0.44585989756793698 0.68120206978953957 0.57168119827056463 0.39043810703519022 0.55291326643754746 0.64912277937457874 0.47314325825395259 0.47133479925837601 0.48705834180527025 0.48608450783270213 0.50280531791243577 0.35832905510672391 0.50190037680417598 0.52968456222279803 0.6037066521040052
decision_type=2 2 2 2 2 2 2 2 2 2 2 2 2 2 2 2 2 2 2 2 2 2 2 2 2 2 2 2 2 2
left_child=16 2 4 6 -2 8 -4 13 9 10 11 -5 25 -7 20 -16 17 18 -1 -12 23 -10 -11 -6 -8 -3 -17 29 -27 -19
right_child=1 12 3 5 14 7 24 -9 21 22 19 -13 -14 -15 15 26 -18 27 -20 -21 -22 -23 -24 -25 -26 28 -28 -29 -30 -31
leaf_value=0.11189649187151379 0.056419724537108334 0.079806110816310352 0.056401023149388121 -0.11926035208808705 -0.16473413722922101 -0.049475848976361494 -0.086590931570967478 -0.099241701180586117 0.068140417054813232 0.065192483082064531 0.10797104120453249 -0.0089522788333257705 -0.0092299192142254165 0.075127752524108915 0.059599228830417794 -0.10856618330279753 0.003453440090352174 0.11014924738419847 -0.0060304603218673709 0.021431259615313364 -0.055165848202065541 0.11022903595254914 0.11200453904953636 -0.110223207808264 -0.13716232135170678 0.10521013567297444 -0.13135438211612055 0.095896174786653909 0.11186783542227659 0.1064209497327801
leaf_weight=5.2372840717434936 3.4505698382854488 3.7690605074167278 2.2256637588143331 4.3608189523220116 4.0055168159306032 3.276064991950987 2.8527517430484295 4.7223333045840263 4.6049469709396345 4.3417149037122709 4.1620447933673841 6.3910863697528839 3.2098768949508658 3.8397827818989754 3.0565801970660678 2.6040895842015743 4.4754589945077887 4.3600553423166257 5.4373566955327988 3.8536634854972363 2.0843312777578831 7.2366422116756439 4.5005546063184738 2.5034268386662006 3.5509716719388962 5.0106985792517644 1.579448416829109 2.696406975388526 4.3015086576342583 4.8412761837244034
leaf_count=27 16 28 11 28 26 24 36 34 25 22 25 32 19 20 17 42 24 22 28 21 18 37 19 39 39 39 12 18 19 33
internal_value=0 0.0106594 -0.00330332 0.0150614 -0.0603661 0.0294605 -0.0705209 -0.0289119 0.0469763 0.0268676 -0.00241471 -0.0536917 0.0785423 0.0177615 -0.0858173 -0.0425426 0.0673897 0.0800664 0.0518279 0.0663658 -0.122278 0.0938617 0.089019 -0.143769 -0.114634 0.10008 -0.11717 0.105402 0.108285 0.108188
internal_weight=0 95.4941 79.203 59.919 19.284 51.2897 8.62939 11.8382 39.4515 27.6099 18.7676 10.7519 16.2911 7.11585 15.8334 7.24012 27.0478 22.5724 10.6746 8.01571 8.59327 11.8416 8.84227 6.50894 6.40372 13.0813 4.18354 11.8977 9.31221 9.20133
internal_count=800 648 543 373 170 287 86 78 209 147 106 60 105 44 154 71 152 128 55 46 83 62 41 65 75 86 54 73 58 55
is_linear=0
shrinkage=0.1


Tree=27
num_leaves=31
num_cat=0
split_feature=5 2 18 12 0 3 12 10 15 16 9 5 5 14 12 6 15 13 5 12 13 11 15 12 7 16 2 5 14 0
split_gain=5.88824 7.97569 8.27961 7.57472 4.97654 6.45358 4.05006 3.75292 7.99254 4.19771 4.04239 3.72676 2.90797 2.65902 2.21937 2.10247 1.49421 1.45301 1.35116 0.935275 0.199578 0.0550236 0.0509166 0.0295239 0.0118415 0.00326134 0.00298863 0.00265236 0.00043101 0.000111269
threshold=0.33083852666671726 0.57581719981941204 0.42486099244186187 0.46232168894342429 0.4395558710812873 0.54579271683344011 0.42451725361392817 0.50154342909406446 0.55410305855786202 0.48365025176420778 0.28409207442430934 0.60601866218605505 0.42409416197920707 0.59227027409934185 0.35120782935195788 0.41575122129859066 0.47095841554490508 0.57217744204237231 0.47486715591196044 0.43427896552761303 0.67383955121282524 0.67445256868611247 0.53418270617711461 0.4013754706331456 0.64414437866507868 0.52928794112835831 0.49473599993578227 0.53429085851771652 0.56294899388406094 0.61903530323178402
decision_type=2 2 2 2 2 2 2 2 2 2 2 2 2 2 2 2 2 2 2 2 2 2 2 2 2 2 2 2 2 2
left_child=14 3 6 4 5 -2 -3 8 10 15 -5 23 -6 17 -1 -10 -16 -9 -14 21 26 25 24 -4 -12 -20 -18 28 -25 -30
right_child=1 2 11 7 12 -7 -8 13 9 -11 22 -13 18 -15 16 -17 20 -19 19 -21 -22 -23 -24 27 -26 -27 -28 -29 29 -31
leaf_value=0.021756233094813174 0.073412074992302082 -0.10686636646066489 0.11494125187245428 0.029648256654133717 -0.19404770812684757 -0.083867157685494076 0.040289949999649292 0.11190065856681126 0.016269227714870542 -0.033771270897711592 -0.11851391834896122 -0.00076899516157470757 0.013614164613990355 -0.013703205547486889 0.031550942414725378 0.10845965907689621 0.10843445678686035 0.039473672789277596 -0.11222878038907258 -0.0371859719852424 0.075981380165179663 -0.13279265729969733 -0.13346317445130287 0.10549195276669139 -0.10851534801613115 -0.10645870801239279 0.10506058791032542 0.10796906808254464 0.10371750155506659 0.10456453283095779
leaf_weight=8.2516940161585826 5.1083888560533541 3.8613710962235954 4.2733003422617974 2.4394797682762164 2.653377264738082 5.3320096656680107 3.6270356588065624 6.2988375648856145 4.0383981764316577 5.7363818138837805 2.9854041896760464 3.9031327962875357 1.4480651915073375 4.1387014035135499 4.0448320209980038 6.3848809525370598 6.0967403277754766 4.9440791979432106 1.7584605515003207 2.1994523648172617 2.5764304250478736 1.2892110645771024 1.9971905797719953 3.0137747824192029 1.9635307211428878 2.2115082833915949 4.6113896518945694 2.8716086447238913 3.9961310103535652 2.5344954505562782
leaf_count=37 23 36 18 14 20 37 25 27 23 33 31 18 14 27 26 31 35 24 26 22 18 12 13 22 31 44 36 16 39 22
internal_value=0 0.0101384 0.0544542 -0.00963717 -0.0569579 -0.00691191 -0.0355907 0.0158004 -0.00769738 0.0349313 -0.0810934 0.0871989 -0.102157 0.0548246 0.0644412 0.0727414 0.0847664 0.0800508 -0.0747815 -0.0919432 0.100969 -0.114843 -0.119986 0.107772 -0.114547 -0.109015 0.106982 0.105304 0.104503 0.104046
internal_weight=0 91.0082 28.0808 62.9274 22.0005 10.4404 7.48841 40.9269 25.5453 16.1597 9.38561 20.5924 11.5601 15.3816 25.5811 10.4233 17.3294 11.2429 8.9067 7.45863 13.2846 5.25918 6.94613 16.6893 4.94893 3.96997 10.7081 12.416 9.5444 6.53063
internal_count=800 648 196 452 198 60 61 254 176 87 89 135 138 78 152 54 115 51 118 104 89 82 75 117 62 70 71 99 83 61
is_linear=0
shrinkage=0.1


Tree=28
num_leaves=31
num_cat=0
split_feature=15 3 7 16 19 5 2 10 15 12 15 2 2 0 19 3 14 17 5 12 19 5 0 19 7 16 11 2 16 18
split_gain=5.51018 5.21211 6.59122 4.55673 5.24106 5.0636 4.11198 10.5687 5.73099 4.87718 4.04141 4.54838 4.15193 3.5355 2.46861 1.66046 1.47857 1.45265 1.36466 1.01796 0.953957 0.337248 0.313799 0.181003 0.161886 0.117036 0.0176142 0.0126375 0.00759228 0.00268628
threshold=0.43315721915359728 0.39484250134268739 0.5025895621312042 0.62708282120390713 0.24822751294270748 0.43048881658747457 0.39903848885919474 0.49901715730011909 0.67164706529993567 0.25496500622975055 0.61481106895917603 0.54460010542651316 0.46389192251915062 0.54457252346708607 0.39570756172462251 0.49610618030985898 0.52086151006418169 0.59168358723732872 0.39888081031748057 0.36558580766746834 0.4511345263413386 0.51335675518747359 0.54232769734565944 0.33155214256694643 0.56768015666982807 0.53982386723007447 0.5701826173408947 0.50278545750429182 0.44528753060947007 0.60761249668591732
decision_type=2 2 2 2 2 2 2 2 2 2 2 2 2 2 2 2 2 2 2 2 2 2 2 2 2 2 2 2 2 2
left_child=1 -1 -3 4 -2 -5 7 8 -6 13 11 12 15 -8 -7 -11 -13 20 -9 -12 -14 -16 23 -4 28 27 -25 -21 -18 -23
right_child=3 2 22 5 6 14 9 18 -10 10 19 16 17 -15 21 -17 24 -19 -20 25 -22 29 -24 26 -26 -27 -28 -29 -30 -31
leaf_value=0.10980385471725317 -0.067307096590286386 0.045179443562924332 -0.15776944397264459 0.044457155703271176 -0.13945230025017394 -0.0070266685659901478 0.053314623131587704 0.10766083405068023 0.029676362352824677 0.10489640571173658 0.054452833434346259 0.030008716507857965 0.029912444165716281 -0.11857990451854541 -0.16732386651831133 0.011606892602797118 0.10499641279379907 -0.10086436881381339 0.037308630687737813 0.11054712610382111 -0.055298169706197026 -0.10652163992619135 -0.081208645872680812 -0.11269310415283572 0.080360210467364079 0.085453022975793311 -0.12557928915715452 0.10491983364702769 0.11137579555425746 -0.11296326143778415
leaf_weight=2.0052245184779158 4.5332958325743666 3.6913410276174528 1.5381240248680113 5.3536065295338613 5.5931010358035582 2.507738783955574 2.1941424608230582 4.8820721879601461 3.1217980086803436 3.644815698266032 5.2626493014395264 4.218247987329959 2.5394932851195318 2.6316789109259844 1.6592954248189924 4.0037469621747732 4.0245672985911352 3.0551908910274506 6.334939070045948 6.2126170396804872 2.7221954427659512 1.3553723096847536 1.863921685144305 2.6160690020769835 2.967062821611762 2.9705575779080382 1.7842050921171901 11.159287840127943 3.4776420816779137 1.2393488548696039
leaf_count=11 24 27 11 28 36 18 10 30 18 17 26 25 17 32 15 28 35 21 34 29 23 28 27 39 24 20 18 94 21 14
internal_value=0 -0.0389627 -0.0649171 0.0291999 0.0373286 -0.0281983 0.0431835 0.00374418 -0.0788681 0.0560527 0.0643286 0.0398323 0.00288556 -0.0404251 -0.085723 0.0560627 0.0799936 -0.0460184 0.0679286 0.0936542 -0.0141723 -0.132114 -0.117005 -0.12824 0.100133 0.103796 -0.117918 0.106932 0.107954 -0.109598
internal_weight=0 13.4989 11.4937 97.6645 85.5491 12.1154 81.0158 19.9319 8.7149 61.0839 56.2581 30.653 15.9654 4.82582 6.76176 7.64856 14.6875 8.31688 11.217 25.6051 5.26169 4.25402 7.80232 5.9384 10.4693 20.3425 4.40027 17.3719 7.50221 2.59472
internal_count=800 133 122 667 564 103 540 118 54 422 380 211 106 42 75 45 105 61 64 169 40 57 95 68 80 143 57 123 56 42
is_linear=0
shrinkage=0.1


Tree=29
num_leaves=31
num_cat=0
split_feature=5 12 2 5 15 10 16 6 13 13 19 7 15 16 5 17 14 8 19 1 10 11 15 3 15 12 1 15 12 7
split_gain=4.94004 4.88222 5.36835 4.87643 4.46637 11.1521 3.87273 3.65869 3.46778 4.09329 3.82597 4.41713 2.78588 2.32224 2.25097 2.95579 2.15185 1.91825 1.78325 1.12283 0.711298 0.574883 0.440443 0.35143 0.16606 0.095032 0.052768 0.025008 0.0102755 0.000281734
threshold=0.53848986933198117 0.31002262685515497 0.57581719981941204 0.26106839266467369 0.53003058300331019 0.55203414841861176 0.29189301567760745 0.35448009096751115 0.61081538979998362 0.35384151839714117 0.42309764079717099 0.48136707196982143 0.57044935768898142 0.43025398354085137 0.39888081031748057 0.50610703679936508 0.44804535278865948 0.50687461764045272 0.37969428540338834 0.3703513031529993 0.41230153199990283 0.57281919989211671 0.65491468017692955 0.57229078634706998 0.48991012044384374 0.54553722282043982 0.45851645330024149 0.44637756258830891 0.39397218748293561 0.58443501629385974
decision_type=2 2 2 2 2 2 2 2 2 2 2 2 2 2 2 2 2 2 2 2 2 2 2 2 2 2 2 2 2 2
left_child=1 3 4 -1 5 19 -2 17 9 -8 16 -12 -5 26 22 -16 -11 -6 -4 -3 -10 -14 -15 -13 27 -22 -9 -21 -20 -30
right_child=6 2 18 12 7 -7 8 13 20 10 11 23 21 14 15 -17 -18 -19 28 24 25 -23 -24 -25 -26 -27 -28 -29 29 -31
leaf_value=0.066538452487454575 0.074349689861900659 -0.045322800909009857 0.034754341452148958 0.0052806914437947177 0.039108677895763305 0.081897497530362684 -0.12553941144083147 0.093769746229839648 -0.048489652297701524 0.10989897205668762 0.054828419064628667 -0.061828363653043797 -0.085133102576457176 0.10918295563025236 0.06439892726869556 -0.042621621728515392 0.0073889636040057856 -0.063865140723414704 0.1100075767267384 -0.11084458801343139 -0.10968674384610887 -0.15340345220009283 0.057757241434438659 -0.11812347787830053 -0.15602048884208364 -0.14147235498017274 0.10964369000215289 -0.12790612159398734 0.10360469997674807 0.10486018450436943
